tree
version=v4
num_class=1
num_tree_per_iteration=1
label_index=0
max_feature_idx=40
objective=regression
feature_names=SZA cos_SZA Solar_Azimuth Solar_Elevation Solar_Declination AM_relative Shading_Flag hour_sin hour_cos doy_sin doy_cos doy_sin2 doy_cos2 Temperature Dew_Point Relative_Humidity Pressure Wind_Speed TCC Low_Cloud Mid_Cloud High_Cloud GHI_clear DNI_clear GHI DNI DHI Clearness_Index GHI_lag1 GHI_lag2 clearness_lag1 GHI_rollmean_45m GHI_rollmean_1h GHI_rollmean_3h GHI_rollstd_1h dGHI_dt dTCC_dt Days_Since_Rain Consecutive_dark_steps rolling_gen_efficiency rolling_PR_proxy
feature_infos=[0.34405675241438871:177.70234861571208] [-0.99919603932038759:0.99998197050319859] [0.011165218883093001:359.97683095957228] [-87.702348615712097:89.655943247585611] [-0.40886151186277597:0.40937690163528889] [0.99972831603685597:37.907168483522923] [0:1] [-1:1] [-1:1] [-0.99999073973619002:0.99999073973619002] [-0.99996295911626565:1] [-0.99999073973619002:0.99999073973619002] [-0.99996295911626565:1] [10.1:42.299999999999997] [-8.7000000000000011:24.600000000000001] [5.7400000000000002:100] [930:950] [0:12.229174298358862] [0:1] [0:1] [0:0.29999999999999999] [0:1] [0:1043.5544914364032] [0:1021.3142972034524] [0:1300.1244187936452] [0:1200] [0:564.58710069003098] [0:1.2] [0:1300.1244187936452] [0:1300.1244187936452] [0:1.2] [0:1291.9379371491179] [0:1291.9379371491179] [0:1249.0601114632325] [0:651.43455741486741] [-921.26758609462024:914.4057205522256] [-1:1] [0:39] [0:31] [0:0.053655140899430201] [0:0.97640096027324275]
tree_sizes=5522 5744 5739 5794 5767 5759 5764 5750 5730 5751 5778 5799 5795 5779 5775 5796 5768 5794 5788 5775 5751 5799 5773 5791 5772 5773 5789 5804 5776 5747 5810 5776 5808 5817 5785 5801 5796 5752 5785 5789 5738 5809 5820 5849 5855 5819 5808 5801 5825 5805 5841 5816 5792 5808 5834 5846 5802 5823 5806 5804 5808 5813 5831 5825 5833 5785 5826 5827 5809 5850 5796 5832 5787 5826 5838 5852 5861 5812 5849 5843 5815 5831 5856 5826 5848 5811 5817 5828 5839 5836 5796 5866 5842 5860 5844 5865 5841 5857 5854 5853 5808 5873 5834 5835 5822 5827 5841 5874 5840 5868 5804 5843 5833 5884 5829 5848 5849 5872 5857 5856 5790 5883 5868 5803 5837 5852 5882 5884 5873 5828 5860 5891 5849 5855 5852 5833 5843 5825 5850 5855 5850 5861 5895 5844 5855 5863 5848 5838 5866 5856 5855 5868 5871 5851 5855 5854 5854 5858 5842 5848 5798 5829 5841 5854 5865 5884 5873 5838 5862 5904 5866 5849 5871 5871 5825 5898 5899 5884 5899 5889 5843 5817 5857 5865 5848 5909 5865 5844 5863 5898 5878 5825 5857 5820 5895 5883 5896 5869 5865 5885 5917 5882 5822 5868 5828 5889 5886 5896 5866 5883 5878 5913 5924 5868 5914 5882 5898 5877 5930 5923 5904 5850 5888 5866 5919 5922 5905 5864 5883 5894 5895 5902 5893 5918 5981 5914 5909 5739 5905 5930 5894 5909 5913 5907 5894 5893 5895 5916 5912 5927 5922 5911 5928 5907 5908 5664 5944 5935 5934 5765 5932 5958 5857 5388 5934 5917 5929 5913 5926 5572 5867 5924 5904 5947 5952 5930 5961 5588 5934 5941 5964 5920 5427 5664 5980 5915 5965 5833 5949 5620 5923 5971 5760 5954 5963 5689 5873 5681 5578 5917 5941 5059 5611 5426 5734 5334 5693 5700 5556 5613 5982 5682 5206 5054 5951 5938 5962 5485 5938 5924 5588 5526 5780 5360 5955 5936 5483 5937 5936 4935 5229 5376 5227 4944 4989 5253 4944 5760 5076 5351 4666 4849 5346 5428 5180 4866 4710 5434 4931 5058 4774 5032 5283 4997 4767 5137 4878 4659 5598 5934 4837 4762 5255 5501 5644 5997 5964 4684 5586 4998 5551 5340 4948 4748 5019 4007 5616 5553 4514 4056 4407 4764 5324 4774 5905 4777 3524 4722 4780 4521 5437 5396 4580 4407 5336 4989 3747 5032 5041 4591 4255 5057 3966 3293 4296 5093 5651 3518 4343 4863 5134 4347 3976 5597 3319 3321 4668 4245 4122 3688 4152 4308 4219 4480 3405 4872 4380 5414 4177 4689 4038 3236 3765 3499 5056 2966 3028 5307 3865 4467 3403 3407 3782 3944 4145 4212 4029 4874 2867 4450 4125 4366 5256 4961 5390 5993 4611 5425 5048 5053 3876 3418 2941 3412 3579 4767 5423 3936 4563 4060 3845 3503 2460 2852 3654 3828 3642 3754 3582 3673 3878 4532 4349 3041 3396 3868 2845 4111 3792 3823 4322 3574 3774 2962 4225 3633 4167 3674 3198 3401 4328 5110 4981 5023 3580 4486 4641 3868 4717 3648 3861 3595 2965 2849 3584 3799 4331 2786 2942 2938 5703 5994 5809 5814 5947 4315 3387 2275 1925 3118 3881 3774 3414 4132 3688 4439 4255 4508 3217 2476 3133 2192 2292 2839 3696 3885 3775 3794 4684 3685 4147 4141 5441 3198 3281 4072 3111 2836 3040 2822 2679 3871 2657 3244 3213 3118 3469 2844 3410 3373 3700 3236 3594 3028 2935 2508 2412 2477 1843 1842 4454 3947 4786 4092 2581 2942 2101 3549 3304 2941 2648 2129 2933 2591 3009 2824 3199 2578 2942 2880 4221 4022 2092 4659 2910 2448 2380 2021 1840 2116 3640 4458 1737 2663 3250 2738 2270 2975 1175 2245 3508 4734 1937 3823 2331 3932 3398 2915 3832 4893 2282 2285 1922 2412 1910 4418 3364 3466 4770 2949 4048 4133 3798 4232 3929 2456 2752 2736 2316 2746 2759 2559 3123 3147 1276 2562 3128 2651 2891 2859 2530 1814 1711 1619 1250 2151 2870 2410 2766 2328 3705 2841 1759 2410 1649 2665 2682 2931 2822 2668 1757 3334 2001 1907 1849 3595 3160 3319 3568 3397 2270 2973 2268 2191 2008 3430 3507 5962 4501 4447 3016 2561 2731 2730 3232 2284 1907 3574 1997 2357 2043 1385 1474 2070 2174 2315 2176 3140 2829 2293 2397 3707 2754 2837 2648 2285 2756 2387 2964 2483 1444 2471 1732 3492 3589 3390 3488 3282 2528 4715 3728 3958 2998 2573 2125 2383 3023 2878 1969 1984 2927 2960 2788 2835 3237 2193 1714 1935 1717 1917 3504 3458 2819 3363 3232 2209 3053 3008 2034 3531 4854 2354 3138 3386 3411 2294 3402 2385 3670 3381 3217 4072 3492 3597 4324 3852 3670 2480 2535 3738 3126 3407 3351 3092 3759 4115 3946 3049 1995 4141 3206 3659 3219 2494 3494 2387 2602 2383 2855 1728 3619 4218 3691 3198 4712 2535 2437 2145 2342 3599 1731 1547 1818 1564 1359 2361 2739 1995 2561 2023 2487 5177 2859 3816 5684 2418 2101 3626 1744 1921 3875 3384 3220 2646 3742 3413 2066 2647 3107 2643 3767 1924 2601 2489 3773 2110 2114 3029 2473 2300 3126 3544 1443 2676 2405 2399 2465 2944 2016 2386 3760 1830 3477 2970 1826 2393 2864 3302 3318 2769 2202 1938 2589 3833 1897 1675 3388 2120 1930 1564 2118 2180 1831 2197 1849 2893 2657 2166 2080 3321 3347 2873 2266 1943 2354 4309 3175 4475 4276 3686

Tree=0
num_leaves=63
num_cat=0
split_feature=8 31 5 31 31 2 7 29 10 10 18 8 18 22 8 28 26 31 22 18 18 7 18 22 22 17 22 30 1 2 28 10 5 33 33 24 15 26 26 29 5 22 18 7 22 10 22 31 22 2 8 26 22 28 15 24 10 2 18 14 10 2
split_gain=1.04337e+07 949198 286601 177235 140771 57015.7 49637 45355.9 44753.4 33635.1 27477.4 26121.7 23704.3 20370.2 18147.5 15929.8 12797.9 9661.31 9301.76 8780.94 8650.14 8267.9 7468.73 6404.02 6366.75 5232.47 4963 4626.94 4554.05 4488.26 4451.34 3890.35 3822.77 3454.58 3419.99 3410.99 3402.8 3246.66 3192.11 3157.89 2764.33 2744.05 2677.18 2540.74 2064.32 1867.62 1635.81 1524.78 1359.12 1349.62 1209.29 1208.22 1159.4 1108.27 1068.89 1050.11 1046.7 977.985 974.249 961.001 752.507 746.842
threshold=-0.5 589.49750454234197 16.640862088061642 770.68219198836323 345.01216066757189 126.30486139228613 0.37940952255126054 95.73262578017075 -0.34964745525122826 0.20931464596304863 0.25000000000000006 -0.70710678118654757 0.25000000000000006 698.65174691014192 -0.70710678118654757 276.63932676476674 160.9888017771402 507.04804859163727 638.94903900158045 1.0000000180025095e-35 0.25000000000000006 0.60355339059327384 0.25000000000000006 374.19571501731434 520.8966586798573 4.8961382822785664 113.3881900218976 0.43119813926514311 0.39662224243927485 226.41017670108309 11.194672501938465 -0.081676395330422577 25.121528606024793 448.57450314473726 444.49217472834044 626.35620757721006 39.235000000000007 346.24793036327577 288.65635769151476 383.10428705752946 1.7457185760367859 600.76764661523248 0.25000000000000006 0.60355339059327384 965.14105363165538 0.13300977955191609 988.58735728389001 439.58792558864769 844.75636539780533 109.76962929953895 -0.37940952255126009 90.567507388583792 233.28213945980573 298.39199105874735 34.785000000000004 658.89860379982849 -0.098820138732871737 124.45947557608513 0.70000000000000007 10.450000000000001 0.13300977955191609 84.827967075318426
decision_type=2 2 8 2 2 2 2 8 2 2 2 2 2 2 2 8 2 2 2 2 2 2 2 2 2 2 2 10 2 2 8 2 8 2 2 2 2 2 2 10 10 2 2 2 2 2 2 2 2 2 2 2 2 8 2 2 2 2 2 2 2 2
left_child=1 4 7 5 12 18 8 30 22 25 11 40 28 41 17 26 27 33 49 -15 29 38 44 39 59 35 -9 51 -1 -10 -2 -19 -4 -12 37 -7 43 -18 57 -17 45 -11 61 -20 -5 -6 -24 -16 -38 -3 -32 -14 -41 -30 -28 -27 -29 -8 -22 -13 -26 -25
right_child=2 3 32 6 10 9 21 15 20 13 14 24 16 19 47 23 34 31 36 -21 58 -23 46 42 60 55 54 56 53 -31 50 -33 -34 -35 -36 -37 48 -39 -40 52 -42 -43 -44 -45 -46 -47 -48 -49 -50 -51 -52 -53 -54 -55 -56 -57 -58 -59 -60 -61 -62 -63
leaf_value=15.433747163178653 15.318514061461796 15.485181551162453 15.327937182641435 15.591599237566442 15.535555970856215 15.545145911473851 15.583050143012034 15.345089246402591 15.647084648279495 15.531201533499265 15.471915895631016 15.489687299146107 15.347961440119278 15.619548800984141 15.438102095722991 15.378517772185566 15.410118013945601 15.509615685927802 15.569583664803572 15.582516900840204 15.620416225260271 15.531370845478444 15.571624680227165 15.424419936674049 15.504470154552926 15.523486407555646 15.38912510970775 15.39472324385677 15.463763084868848 15.622511937228847 15.357339681466431 15.543730577183805 15.291718267693151 15.496803884707187 15.457936171842857 15.573274995504972 15.515886569623273 15.45198830216143 15.555254367561577 15.394790702030553 15.531562293689246 15.569063116666198 15.40521659032904 15.532396875766658 15.620566067248658 15.56883114864964 15.59561966563289 15.463407084067597 15.536685082664897 15.512508773328234 15.337019036098363 15.381541163257067 15.424468661273353 15.490925950040706 15.370003876719192 15.545798202586628 15.430192886941052 15.604071582100632 15.593474239557542 15.466847549473909 15.524098904413277 15.450467182230073
leaf_weight=256 1168 409.5 345 494.5 249 765 1000.5 709.5 6166.5 286 886.5 605.5 295.5 2425.5 386.5 738 706.5 1393.5 514 970.5 598.5 373 1120.5 157.5 336 534 598 204.5 226 1080 644 462 23291 1571.5 337.5 1290 570 248.5 364 251 414 889.5 315.5 348.5 1047 1096.5 556.5 609 994.5 361.5 841 217.5 296.5 501 744.5 498 148.5 549 391.5 282.5 806 348
leaf_count=169 1136 189 319 175 90 277 345 581 2157 101 476 295 237 843 246 502 469 573 181 337 211 132 390 105 133 201 403 137 123 377 496 169 23288 718 197 443 222 155 132 169 146 306 210 122 374 384 191 360 349 138 758 151 198 240 525 176 93 187 136 168 283 227
internal_value=15.4457 15.5589 15.3087 15.5947 15.4869 15.5644 15.6186 15.3659 15.6271 15.5793 15.5068 15.5274 15.4292 15.5966 15.4921 15.3866 15.4107 15.501 15.5288 15.6091 15.6395 15.5757 15.5951 15.406 15.5028 15.5535 15.3667 15.381 15.4699 15.6435 15.3336 15.5182 15.2922 15.4879 15.4307 15.5629 15.5385 15.421 15.5842 15.3921 15.5556 15.5601 15.428 15.5549 15.6115 15.5629 15.5798 15.4536 15.5292 15.4982 15.3457 15.3618 15.4106 15.4826 15.3784 15.5345 15.4094 15.5908 15.6102 15.4825 15.5185 15.4423
internal_weight=67285.5 36838 30447.5 24598 12240 10856.5 13741.5 6811.5 11455 7658.5 9098.5 3789.5 3141.5 4571.5 5309 4158.5 2158.5 4313.5 3198 3396 8236.5 2286.5 3218.5 2106.5 2030 3087 2052 866 983 7246.5 2653 1855.5 23636 2458 1292.5 2055 2427 955 1913.5 1285.5 1759.5 1175.5 821 862.5 1541.5 1345.5 1677 995.5 1564.5 771 1485 513 547.5 727 1342.5 1032 353 1549.5 990 888 1142 505.5
internal_count=43621 14704 28917 8692 6012 3885 4807 5310 4011 2684 4041 1499 1971 1587 2542 2920 1439 1936 1201 1180 2881 796 1130 1411 879 1097 1509 618 532 2534 2390 742 23607 1194 821 720 874 624 664 869 620 407 542 303 549 474 581 606 571 327 1254 388 367 363 928 377 230 532 347 463 416 332
is_linear=0
shrinkage=1


Tree=1
num_leaves=63
num_cat=0
split_feature=23 31 23 23 31 23 22 5 33 29 25 22 8 25 8 25 33 22 28 25 23 31 22 0 29 8 29 23 23 26 25 33 25 26 29 26 29 22 25 22 25 8 8 8 31 26 22 25 31 26 33 26 9 29 23 23 25 26 23 18 25 0
split_gain=1.02299e+07 862344 348806 179969 164525 55607 45144.7 38969.4 35181.4 32133.6 24233.8 24140.6 23099.8 12861.8 12768.5 13652.2 12433.7 10805.5 10501.4 10030.6 9239.79 8737.84 8158.78 7016.18 6731.44 5626.14 5378.82 5287.46 4593.92 4250.84 4232.41 4171.18 4051.63 4003.59 4031.36 3999.8 3997.03 3836.52 2915.21 2834.57 2753.64 2572.32 2444.74 2367.62 2325.22 2292.75 2282.1 2209.48 2181.71 2030.76 1985.14 1868.63 1485.82 1216.63 1109.3 952.289 890.789 741.739 736.365 645.481 631.503 565.008
threshold=741.3014715490624 652.54636569019715 489.16345227561357 879.91392238724745 428.18358980192897 911.04123332456868 801.52809409585245 25.121528606024793 440.09065819061078 230.80407832937456 508.74386805627455 862.88277536884073 -0.5 334.94083345649852 -0.70710678118654757 407.14487563463678 665.79403440127783 710.63433144765906 403.09725179837056 364.85726380800912 923.90250142501429 341.14352873984143 638.94903900158045 45.572521123185666 359.42026503142978 -0.60355339059327384 55.710163088421744 793.25796129408388 837.10091962150261 228.39141619659605 310.47848139030413 731.39117939825553 198.34129540982383 315.57807452263393 234.90786648521023 294.80152419869103 710.10383730914305 490.83312007983068 351.85122901760849 741.83196835991873 94.144942447235636 -0.5 -0.5 -0.70710678118654757 796.75731330890824 272.33017744428315 903.97769748619623 252.47843736530939 554.96687257187671 192.49754283502685 75.86568758022149 100.29770559474373 -0.8779519545588893 307.89176376081707 634.28169417318907 613.88260154267334 226.38911435767221 379.92575419116127 793.85065406309764 0.70000000000000007 194.27106194862469 64.528293701140953
decision_type=2 2 2 2 2 2 2 8 2 8 2 2 2 2 2 2 2 2 10 2 2 2 2 2 10 2 10 2 2 2 2 2 2 2 8 2 8 2 2 2 2 2 2 2 2 2 2 2 2 2 2 2 2 10 2 2 2 2 2 2 2 2
left_child=2 4 7 11 8 12 17 24 21 26 30 22 16 44 15 48 27 43 32 29 46 33 -3 -17 50 38 -4 -6 -18 40 -8 -22 51 34 -2 39 -15 61 -23 -24 -10 -34 47 -5 56 54 -12 -20 -7 -19 -1 -11 -38 -14 -28 -43 -13 -31 -37 -32 -56 -21
right_child=1 3 9 6 5 14 10 -9 19 18 20 13 53 36 -16 23 28 49 42 37 31 25 35 -25 -26 -27 45 -29 -30 57 59 -33 41 -35 -36 58 52 -39 -40 -41 -42 55 -44 -45 -46 -47 -48 -49 -50 -51 -52 -53 -54 -55 60 -57 -58 -59 -60 -61 -62 -63
leaf_value=-0.12768129642223436 -0.059635696130384899 0.049269308951816387 -0.10358665329524377 0.12538492257617842 0.039838889510566855 0.068217936806418578 0.11620506160899183 -0.15284163137902607 -0.030368568930456599 -0.074236797759895196 0.15800017322257964 0.086347426558205473 -0.040019766891411707 0.12106078462676546 0.070956004519162216 0.16462272715703027 0.074325874039936693 0.1625588006532567 -0.018850999537873829 0.050283389491470237 0.18118332421514916 0.0042624060970074731 0.092573089816216786 0.12215901743383097 -0.067085265982054901 -0.03893023489281263 -0.08730191759240459 0.064019482497815874 0.10701025422378424 0.027854185298209072 0.1670112316696315 0.20335403656014506 -0.0068213474138983689 0.001200313593762672 -0.023992270522960796 0.064920036386312205 0.17388107756743482 0.081109346083677133 0.045750949295094386 0.11983622160497701 0.014201818883902841 -0.061848814242133288 -0.025569975063772472 0.090653639307864756 0.12341878960621776 -0.034120136324267886 0.18171938664088472 0.023059315798398022 0.10290073437485958 0.13820074815419589 -0.10757627741770405 -0.045156230835267056 0.14595583253285255 -0.0013436062202054728 -0.080690702867404054 -0.033869664664903397 0.10852759275212424 0.052747513276966002 0.087125408084768999 0.14252185713543158 -0.057567048491376227 0.02823734870002105
leaf_weight=1208 576.5 400 950.5 625.5 1213.5 391.5 418.5 23291 214 563.5 703.5 571.5 150.5 697 632.5 618 1029 1350 199.5 301.5 1371 492 790 1283.5 307.5 216.5 565.5 3841.5 804 388.5 526.5 4822.5 276.5 288 723 282 327 466.5 257.5 925 382.5 202.5 394.5 354 538.5 151.5 2715 330 405 685 1155 402.5 1594.5 177 227 358 402 187.5 567.5 384 390 222
leaf_count=1189 399 169 816 213 603 156 145 23288 143 395 248 207 105 247 231 212 391 463 131 128 477 295 273 450 214 145 403 1590 282 214 183 1693 181 181 466 108 111 174 126 318 225 137 262 123 188 101 954 194 144 239 1011 270 552 115 165 239 141 81 202 133 262 120
internal_value=-0.000424539 0.113449 -0.133929 0.154942 0.0562017 0.0781536 0.175809 -0.148674 0.00709169 -0.0575018 0.185308 0.113846 0.0625058 0.129549 0.111975 0.121507 0.0664075 0.141203 -0.034261 0.0367536 0.190908 -0.0180299 0.0918687 0.136171 -0.112205 0.00565543 -0.0851656 0.0582422 0.0888019 0.0168774 0.144503 0.198525 -0.048296 -0.0324445 -0.0399082 0.098449 0.14312 0.060167 0.0186543 0.107445 -0.0018065 -0.031974 -0.00679111 0.113121 0.105832 -0.0718523 0.176965 0.00720737 0.0861513 0.154552 -0.117989 -0.0622935 0.150941 -0.0193612 -0.0765832 -0.0442523 0.0957867 0.0361936 0.0799956 0.157129 -0.0664061 0.0411605
internal_weight=67285.5 36312.5 30973 21050.5 15262 10546 13955.5 25961.5 4716 5011.5 10941 7095 7215.5 4130.5 3330.5 2698 6888 3014.5 2727 2162.5 9612 2553.5 2964.5 1901.5 2670.5 966 2284.5 5055 1833 1172.5 1329 6193.5 1803 1587.5 1299.5 2564.5 2618.5 990 749.5 1715 596.5 837 924 979.5 1512 1334 3418.5 529.5 796.5 2035 2363 966 1921.5 327.5 1182.5 560.5 973.5 576 849.5 910.5 617 523.5
internal_count=43621 14363 29258 7387 6976 4279 4871 25702 2697 3556 3833 2516 3086 1446 1193 962 2866 1038 1809 1085 3372 1612 1070 662 2414 566 1747 2193 673 663 461 2170 1222 1046 865 901 910 422 421 591 368 557 587 336 536 931 1202 325 300 702 2200 665 663 220 830 376 348 295 310 316 427 248
is_linear=0
shrinkage=0.01


Tree=2
num_leaves=63
num_cat=0
split_feature=8 31 5 31 31 2 2 29 25 25 2 25 8 8 29 28 8 31 25 22 8 31 14 22 22 22 7 22 28 25 22 5 25 22 10 7 22 2 31 15 29 25 30 25 29 22 29 28 29 17 2 25 25 31 8 2 2 14 22 2 8 15
split_gain=1.00236e+07 912525 275209 170283 135158 54844.3 47942 43633.6 33880.2 33561.7 31338.6 29663.6 27549.9 23979.4 16090.1 15923.6 13138.7 11068.2 10183.5 8952.55 7059.4 6977.7 6843.32 6807.7 6008.44 5257.49 4861.4 4719.87 3819.14 3773.9 3693.8 3651.06 3407.03 3067.86 2926.68 2905.69 2832.2 2658.59 2447 2155.42 2146.92 2092.24 2009 1799.71 1589.67 1588.9 1555.79 1528.85 1422.89 1310.49 1296.29 1293.13 1275.43 1242.55 1233.74 1150.85 1050.87 956.996 919.599 873.565 746.235 680.904
threshold=-0.5 589.49750454234197 16.640862088061642 770.68219198836323 345.01216066757189 126.30486139228613 131.87226647845617 79.609146875033943 325.22921583212099 411.80396692662219 246.56850604170413 329.40271705539982 -0.70710678118654757 -0.78656609248549325 761.57823723444415 285.74090226147945 -0.70710678118654757 180.22260924381467 487.87862265690688 638.94903900158045 -0.9159756150367534 473.65005780454391 16.350000000000005 801.52809409585245 113.3881900218976 402.86945610472662 0.60355339059327384 504.71409680182177 11.194672501938465 654.78434031803147 988.58735728389001 25.121528606024793 239.26824433965319 594.87032623828986 -0.21772323039653194 0.60355339059327384 991.5471429406598 229.09100463587222 263.56864540690668 24.865000000000006 350.79600591612979 329.40271705539982 0.32037443574934849 397.59549550857281 654.4500502589774 860.97094023352224 533.95487731789683 311.10728427292804 234.90786648521023 4.4658948502736537 109.76962929953895 202.35860667170627 198.34129540982383 503.8370092707105 -0.70710678118654757 238.69547506395503 121.40832324653003 6.7500000000000009 367.12882463917998 98.297548997276195 -0.37940952255126009 46.365000000000002
decision_type=2 2 8 2 2 2 2 8 2 2 2 2 2 2 10 10 2 2 2 2 2 2 2 2 2 2 2 2 8 2 2 8 2 2 2 2 2 2 2 2 8 2 10 2 8 2 8 8 10 2 2 2 2 2 2 2 2 2 2 2 2 2
left_child=1 4 7 5 11 19 14 28 16 32 18 17 22 20 26 24 21 42 -8 50 -11 40 37 -20 -9 39 44 57 -2 45 43 -4 55 -15 -29 -31 59 -10 61 -17 -6 -27 -1 -12 -5 -21 -23 -13 58 -34 -3 -50 -18 -24 -40 -7 -41 -14 -26 -16 -30 -19
right_child=2 3 31 6 8 9 10 15 12 13 30 47 27 33 36 25 52 38 23 29 -22 46 53 -25 48 41 -28 34 60 35 -32 -33 49 -35 -36 -37 -38 -39 54 56 -42 -43 -44 -45 -46 -47 -48 -49 51 -51 -52 -53 -54 -55 -56 -57 -58 -59 -60 -61 -62 -63
leaf_value=-0.077761730978514743 -0.12578603779250208 0.038263320655480604 -0.11589578343123841 0.10869420569076152 0.0061778694081210317 0.097334179417204472 0.14918630718545026 -0.099014910316797794 0.12376235316501806 0.17465798039855238 0.11190915081678285 0.018365795639388557 0.045059265950875269 0.080802118982367444 0.13772307560391669 -0.025890439679918362 -0.014447004370462715 -0.018077677019514994 0.16281792376249232 0.07223550747994964 0.14574324684738202 0.047621407308969008 0.05761998894999968 0.19746628824910034 -0.079219732108670227 -0.042357937375704452 0.082847236019748069 0.039119359014782966 -0.089333836099413436 0.13106944639281601 0.16563963567272999 -0.15131337973549855 0.11896897292783312 0.11787755128320145 0.071127552852797329 0.086474788962399282 0.17508212247146282 0.098310040685376174 0.0012243189470925937 -0.066341441363672121 0.035981381068866204 -0.0011312430875029947 -0.042331013507434893 0.14244132059044204 0.13361546635807459 0.09239300963885945 0.0665070414381881 0.046410039497115467 -0.066098805091886995 0.093857670364339951 0.065049218538698259 -0.038028392091091261 0.012664501680569215 0.085011077021371645 -0.022423110802477528 0.074601741219870746 -0.044313420896580268 0.02303145416228411 -0.053782429092003203 0.15845131507060797 -0.10706358008681416 -0.040851231169027981
leaf_weight=505.5 1143.5 409.5 345 490 307.5 450 603 791 812.5 1557 327 339 358.5 307 682.5 320 363 198.5 726 873.5 2289 795 336 6342 707.5 170 355 407.5 568.5 363 709.5 23291 717 1285.5 1091.5 296.5 784.5 1080 522 515 1186.5 435 256 1021.5 992.5 894 1134 483 391 415.5 361.5 318 327.5 421.5 377 637.5 440.5 477.5 218.5 708 793 460.5
leaf_count=377 1116 189 319 174 181 157 214 648 287 542 115 190 168 109 235 214 241 128 245 330 793 361 142 2222 498 114 126 200 445 126 249 23288 250 444 405 103 274 377 318 346 593 284 170 357 349 315 467 227 268 148 138 212 192 148 250 241 297 279 149 247 719 311
internal_value=-0.000419215 0.11054 -0.134666 0.145647 0.0399704 0.115981 0.169057 -0.078609 0.0594928 0.130528 0.18112 -0.0165654 0.0770296 0.143955 0.139709 -0.0592335 0.0382007 -0.034856 0.190502 0.0810617 0.157561 0.0462225 0.0991182 0.19397 -0.076178 -0.0372883 0.117471 0.0518712 -0.111816 0.0905312 0.145945 -0.15081 0.0975003 0.110884 0.0625225 0.11146 0.158328 0.109399 -0.0195067 -0.0487967 0.0298844 -0.0128834 -0.0660609 0.135277 0.125592 0.0825614 0.0588083 0.0349654 -0.0649801 0.110005 0.0510244 -0.0537217 -0.00155281 0.0731238 -0.0086993 0.0842329 -0.0563544 0.0326136 -0.0734054 0.148561 -0.0998561 -0.0341236
internal_weight=67285.5 36838 30447.5 24598 12240 10856.5 13741.5 6811.5 9098.5 7658.5 9729 3141.5 4985 5438.5 4012.5 4306.5 4113.5 2319.5 7671 3198 3846 3423 2650 7068 2426 1880.5 1837.5 2335 2505 2427 2058 23636 2220 1592.5 1499 659.5 2175 1892.5 1558 1275.5 1494 605 761.5 1348.5 1482.5 1767.5 1929 822 1635 1132.5 771 709 690.5 757.5 899 1087.5 955.5 836 926 1390.5 1361.5 659
internal_count=43621 14704 28917 8692 6012 3885 4807 5310 4041 2684 3402 1971 2006 1888 1405 3030 2035 1554 2681 1201 1335 1602 954 2467 1775 1255 649 1052 2280 874 721 23607 796 553 605 229 756 664 1007 857 774 398 547 472 523 645 828 417 1127 398 327 480 433 290 568 398 643 447 647 482 1164 439
is_linear=0
shrinkage=0.01


Tree=3
num_leaves=63
num_cat=0
split_feature=23 31 23 23 31 23 22 5 29 29 22 8 18 8 29 27 22 18 23 23 31 22 0 24 23 29 0 0 29 31 23 31 26 5 31 31 26 26 22 18 29 8 29 26 22 3 26 26 18 18 29 24 23 9 29 23 23 26 26 27 23 39
split_gain=9.829e+06 828486 334682 173308 157941 53593.8 43398.9 37360.6 30851.7 30057.2 23310.6 22150.1 18794.9 12285.2 11217.7 10715.7 10431.1 9678.71 9373.93 9251.32 8416.78 7805.42 7759.79 6831.18 6748.01 6502.29 5554.95 5296.42 5149.41 5036.49 4738.03 4104.19 3857.82 3762.3 3580.23 3476.17 3175.23 2945.98 2713.04 2509 2367.59 2241.29 2229.43 2207.95 2183.76 2018.76 1985.6 1874.99 2551.67 1700.02 1655.95 1537.53 1475.05 1426.34 1177.76 1106.88 1068.37 1021.15 977.753 852.64 720.283 686.047
threshold=741.3014715490624 652.54636569019715 489.16345227561357 879.91392238724745 428.18358980192897 911.04123332456868 801.52809409585245 25.121528606024793 230.80407832937456 337.5204083008984 862.88277536884073 -0.5 1.0000000180025095e-35 -0.70710678118654757 544.12395374111645 0.38293066581009122 710.63433144765906 1.0000000180025095e-35 923.90250142501429 664.13666859932209 796.75731330890824 638.94903900158045 48.048110477749454 363.77592149419894 837.10091962150261 359.42026503142978 64.528293701140953 65.776003116570394 55.710163088421744 843.50814040293119 805.05356929727589 573.2994410944458 294.80152419869103 1.2888488282400121 559.29281403495759 285.11517092920315 318.98963561414536 446.92580398809054 741.83196835991873 0.70000000000000007 461.03204014768181 -0.70710678118654757 665.52087991002543 272.33017744428315 402.86945610472662 58.8721889171063 192.49754283502685 267.96501653277346 0.70000000000000007 1.0000000180025095e-35 79.609146875033943 669.44822629720886 825.53821691167093 -0.91585580712236336 307.89176376081707 613.88260154267334 634.28169417318907 55.699244408735801 224.07041951258194 0.40362276378225598 793.85065406309764 0.035570704719908156
decision_type=2 2 2 2 2 2 2 8 8 8 2 2 2 2 8 2 2 2 2 2 2 2 2 2 2 10 2 2 10 2 2 2 2 10 2 2 2 2 2 2 10 2 8 2 2 2 2 2 2 2 8 2 2 2 10 2 2 2 2 2 2 2
left_child=2 4 7 10 9 11 16 25 28 23 21 14 18 17 34 47 41 22 45 40 37 -3 -7 36 -16 50 49 30 -4 51 -17 -19 38 -20 -6 57 39 52 -23 -2 55 -5 -22 56 -37 -8 -18 48 -11 -25 -1 -14 -12 -44 -13 -10 -30 -21 -46 -57 -34 -31
right_child=1 3 8 6 5 13 12 -9 19 15 20 54 29 -15 24 27 46 31 33 35 42 32 -24 26 -26 -27 -28 -29 43 61 -32 -33 60 -35 -36 44 -38 -39 -40 -41 -42 -43 53 -45 58 -47 -48 -49 -50 -51 -52 -53 -54 -55 -56 59 -58 -59 -60 -61 -62 -63
leaf_value=-0.12226097018845651 -0.032846982995259393 0.048281463998722733 -0.10154518992271654 0.12277676238375865 0.041146678638326349 0.16467349408462295 0.15481660374218228 -0.14980040432586103 -0.070587121723952456 0.014135866518244366 0.10167808737278806 -0.039250845612556325 0.116955322825464 0.069568509126272729 0.066537897691963999 0.019591260734167729 0.15944152574442233 0.078362476239977399 0.20173783294575379 -0.059006158810157285 0.10987140025537247 0.09066876334422018 0.11717216385544099 0.03654786815783248 0.094594546741819094 -0.065667128787105608 -0.051514550422207782 -0.00064068490189724946 -0.085654014976511539 0.15697880073483161 0.053808437264933853 0.11738912194883946 0.063386246361925233 0.17983872359490233 0.063557061905363005 -0.033140662078038757 -0.0026173375846575138 0.096869865947022071 0.11734871834757515 -0.067624245961036916 -0.027081981313134506 0.088944957152656892 0.16848409679281962 -0.033457197089764204 0.013301406838476311 0.17855713520960648 0.1353994582826441 0.019103886510778035 -0.033142521345151076 0.00016760386584944265 -0.10265176474237618 0.14784120414975557 0.13241397436204497 0.13980507654022747 -0.0011979759241516565 -0.067962806111454596 -0.065142426126312603 -0.027328080205283954 -0.010214626602393161 -0.03860575102394203 0.085307879642436385 0.1831904343387874
leaf_weight=1556.5 434 400 950.5 625.5 1765.5 595.5 633 23291 525 168 288 150.5 279 632.5 2533.5 589 1350 619 4224 151.5 268 790 949.5 192.5 1346.5 307.5 174.5 316.5 565.5 354 1339.5 534 282 1318.5 1242.5 205 170 904.5 925 420 286.5 354 283.5 151.5 427.5 2521.5 685 189 342.5 380.5 806.5 1024.5 670.5 1716 177 159.5 617 348.5 297 326.5 567.5 586.5
leaf_count=1518 280 169 816 213 861 204 224 23288 360 94 102 105 97 231 1005 327 463 240 1478 105 97 273 331 100 489 214 119 202 403 123 605 187 108 464 511 137 108 321 318 300 190 123 98 101 260 891 239 108 227 227 682 355 235 593 115 114 427 231 194 218 202 201
internal_value=-0.000413984 0.111206 -0.131276 0.151876 0.0550935 0.0766018 0.172354 -0.145719 -0.0564121 0.00697609 0.111548 0.0612398 0.181667 0.109805 0.0650604 0.0265538 0.138422 0.119155 0.188442 -0.0336392 0.126978 0.0899522 0.135734 -0.0255426 0.0763356 -0.11001 -0.00250273 0.0371946 -0.0835187 0.155216 0.0434097 0.0966738 0.0963887 0.196616 0.050457 -0.0160234 -0.0422898 0.110728 0.105223 -0.0501272 -0.0529597 0.110833 0.140181 -0.0704898 -0.00452399 0.173928 0.151537 -0.00757209 -0.0175419 0.0125387 -0.115694 0.141486 0.123493 0.144089 -0.0189255 -0.0601835 -0.0751327 -0.0372221 0.00362493 -0.0485901 0.0782675 0.173793
internal_weight=67285.5 36312.5 30973 21050.5 15262 10546 13955.5 25961.5 5011.5 4716 7095 7215.5 10941 3330.5 6888 2944.5 3014.5 2698 8697 2727 4130.5 2964.5 1545 1771.5 3880 2670.5 747.5 2245 2284.5 2244 1928.5 1153 2564.5 5542.5 3008 1429.5 1024 1863 1715 854 1297.5 979.5 2267.5 1334 929.5 3154.5 2035 699.5 510.5 573 2363 1303.5 958.5 1999.5 327.5 1011 1182.5 500 724.5 486 849.5 940.5
internal_count=43621 14363 29258 7387 6976 4279 4871 25702 3556 2697 2516 3086 3833 1193 2866 1563 1038 962 3057 1809 1446 1070 535 1134 1494 2414 446 1134 1747 776 932 427 901 1942 1372 927 688 658 591 580 882 336 788 931 591 1115 702 429 321 327 2200 452 337 691 220 692 830 336 454 332 310 324
is_linear=0
shrinkage=0.01


Tree=4
num_leaves=63
num_cat=0
split_feature=8 31 5 31 31 4 10 29 22 8 31 10 8 8 28 18 22 18 29 18 18 18 8 18 8 22 0 22 26 22 22 28 26 31 22 31 5 18 26 5 29 22 29 22 29 18 14 22 22 40 26 29 28 8 22 14 13 26 28 22 26 31
split_gain=9.62987e+06 876962 264190 163626 129875 52237.7 43865.4 41925.9 33484.2 30096.8 27276.1 22360.4 16713.4 14824.2 14773.6 13803.2 13484.3 10938.2 9903.96 8756.46 8608.74 7463.89 6986.71 6630.84 6475.92 6228.49 6200.61 6005.87 4719.85 4560.49 4421.43 4158.41 4080.09 4070.08 3998.61 3972.43 3487.1 3422.25 3355.51 3349.83 2981.07 2955.61 2745.15 2696.7 2600.29 2562.32 2557.48 2101.69 2044.37 2008.31 1807.16 1535.89 1346.3 1092.04 1077.04 1013.25 1009.59 936.71 848.19 681.13 660.128 656.789
threshold=-0.5 589.49750454234197 16.640862088061642 770.68219198836323 383.1470711706782 -0.11734788628671554 -0.25119006388481935 95.73262578017075 698.65174691014192 -0.9159756150367534 230.9614315318602 -0.081676395330422577 -0.70710678118654757 -0.70710678118654757 276.63932676476674 0.25000000000000006 988.58735728389001 0.25000000000000006 754.13430447551525 1.0000000180025095e-35 1.0000000180025095e-35 0.25000000000000006 -0.70710678118654757 0.25000000000000006 -0.70710678118654757 862.88277536884073 41.09034723515127 374.19571501731434 83.650361919136444 113.3881900218976 520.8966586798573 11.194672501938465 375.9499612705402 496.05098262010057 831.59446639685757 507.04804859163727 25.121528606024793 0.25000000000000006 309.62233365671796 1.7281376190714404 383.10428705752946 862.88277536884073 475.92419743341986 475.61158259451469 686.64484539105126 0.25000000000000006 10.250000000000002 638.94903900158045 717.1825896873371 0.76315416021907923 201.57201427603619 350.79600591612979 159.13499386018418 -0.37940952255126009 233.28213945980573 14.050000000000002 31.450000000000003 150.95656242519854 804.52474643283301 312.87191374927124 349.92273663708369 678.38485533167488
decision_type=2 2 8 2 2 2 2 8 2 2 2 2 2 2 8 2 2 2 8 2 2 2 2 2 2 2 2 2 2 2 2 8 2 2 2 2 8 2 2 10 10 2 10 2 8 2 2 2 2 2 2 8 8 2 2 2 2 2 10 2 2 2
left_child=1 4 7 5 10 8 16 31 24 23 21 22 19 17 29 43 25 34 48 39 26 -1 33 46 -3 58 -10 40 -23 -9 57 -2 42 51 -7 -21 -4 -24 -18 -13 59 -19 -17 -12 -27 -29 -8 -15 -11 -20 -32 -6 -30 -33 -42 -31 -35 -14 -5 -16 -25 -22
right_child=2 3 36 6 11 13 9 14 20 18 15 12 30 47 27 32 38 41 49 35 61 28 37 60 -26 44 -28 45 52 55 50 53 -34 56 -36 -37 -38 -39 -40 -41 54 -43 -44 -45 -46 -47 -48 -49 -50 -51 -52 -53 -54 -55 -56 -57 -58 -59 -60 -61 -62 -63
leaf_value=-0.0026174926550788734 -0.12271541266143959 0.11625586786941744 -0.11366815096011265 0.081477960088611717 0.016852632038515659 0.11162014366147366 0.19975932289510323 -0.09706457174895855 0.18647042558623753 0.10146943490816035 0.028317694192012532 0.12385907115656966 0.041654334458811525 0.044216455126415637 -0.076679293045471206 -0.02489287346717696 0.17493884689767772 0.07875049064386111 0.14960451096702337 0.057860953063329175 0.11830425318281855 -0.089390566674978147 0.047820628266328741 0.17649533240494625 0.073720379663085353 0.10230497311895544 0.15179838518066491 -0.0031704631478270866 -0.057933924759217825 -0.056417910535951771 0.075638009805086601 -0.08535014130745576 0.026317427989041634 0.056943003284919469 0.15078234352814524 0.094661335041301448 -0.14830256209384834 0.0069044239164859876 0.14340647858524189 0.087189267006787377 -0.049222617724825883 0.098621597321453036 0.0040389178457627146 0.063494482716125566 0.13843705123648042 -0.039479226580756546 0.18295672880543123 0.073313070184246626 0.13516638459808017 0.1744840623696238 0.044786493104177975 0.044225265214937234 -0.029315795846922944 -0.1047159268097123 -0.020616904615403549 -0.074958083030696093 0.074546464751964497 0.016068431257656019 0.10818193633800728 -0.055538014197623095 0.14890642859300843 0.13969827534745088
leaf_weight=325 1168 885 345 280 259.5 749.5 3750 709.5 955.5 312 624.5 889.5 476 518 326.5 847 978 1220 731.5 667 495 323 306 297 644 272.5 1465.5 505.5 317 721 713.5 644 309 1206 472.5 562.5 23291 614.5 706.5 399 251 2431.5 531 343.5 1797 315.5 1926 525 730.5 1144.5 285 1128 372.5 841 296.5 621.5 525 216 358.5 411.5 457.5 495
leaf_count=198 1136 305 319 102 145 260 1310 581 329 108 335 305 229 227 225 557 342 446 258 289 172 254 135 106 240 100 514 332 215 486 252 496 171 506 163 205 23288 381 249 138 169 862 317 143 627 210 678 195 251 392 130 527 245 758 198 442 205 130 123 277 161 172
internal_value=-0.000408797 0.10835 -0.131993 0.142766 0.0391687 0.113686 0.165714 -0.0770693 0.137744 0.178035 -0.00764124 0.0618272 0.0779769 0.0935445 -0.0571809 0.0109051 0.139397 0.100893 0.150978 0.0943405 0.155239 -0.044427 0.0449557 0.190247 0.0985062 0.125216 0.165671 -0.0384792 -0.0577832 -0.076297 0.0534852 -0.108151 -0.00635919 0.052107 0.12706 0.0748755 -0.14781 0.0206259 0.161961 0.112714 -0.0519702 0.0920477 -0.013739 0.0409575 0.133821 -0.0172313 0.194145 0.0590266 0.125372 0.165008 0.0669909 0.0391633 -0.042671 -0.0964919 -0.0339407 -0.0651429 0.0623962 0.0337906 0.096874 -0.0651522 0.160347 0.129351
internal_weight=67285.5 36838 30447.5 24598 12240 10856.5 13741.5 6811.5 4940 9349 3992.5 8247.5 4208.5 5916.5 4158.5 2655 4392.5 4873.5 2918.5 2518 3411 1337.5 4039 6430.5 1529 2708 2421 2106.5 1012.5 2052 1690.5 2653 1687 3118.5 1222 1229.5 23636 920.5 1684.5 1288.5 1285.5 3651.5 1378 968 2069.5 821 5676 1043 1042.5 1876 998.5 1387.5 689.5 1485 547.5 1342.5 1731 692 638.5 738 754.5 990
internal_count=43621 14704 28917 8692 6012 3885 4807 5310 1732 3264 2435 3577 1678 2153 2920 1523 1543 1731 1009 937 1187 912 1899 2255 545 952 843 1411 714 1509 741 2390 1045 1383 423 494 23607 516 591 443 869 1308 874 478 727 542 1988 422 359 650 382 672 460 1254 367 928 711 359 225 502 267 344
is_linear=0
shrinkage=0.01


Tree=5
num_leaves=63
num_cat=0
split_feature=23 31 23 23 31 23 22 5 33 29 25 22 8 8 25 25 28 22 25 23 31 31 5 29 22 29 8 25 26 29 22 22 33 23 26 25 25 25 25 25 26 23 8 23 31 4 8 22 26 29 26 33 31 25 26 5 2 35 4 34 29 2
split_gain=9.53512e+06 801070 322566 165498 150512 51740.1 41731.1 37479.2 35213.6 28972.9 22294.6 21891.8 20955.3 15902.5 13814.2 12465.4 10402 10003 9922.25 9522.14 8904.35 8760.5 6790.73 6571.46 5885.04 5040.27 5016.55 4827.68 4517.07 4491.74 4371.21 4327.02 4150.11 3695.31 3683.52 3652.05 3471.12 3217.94 3064.32 2539.92 2411.9 2373.89 2358.86 2312.36 2083.45 2024.17 1992.67 1967.88 1526.11 1474.5 1462.52 1453.75 1334.34 1127.06 1105.76 1062.51 1056.91 1053.2 779.368 606.417 580.858 533.791
threshold=741.3014715490624 655.67587371340971 489.16345227561357 879.91392238724745 431.59044774148521 897.31299157621504 801.52809409585245 25.121528606024793 440.09065819061078 230.80407832937456 508.74386805627455 781.15179527406167 -0.5 -0.70710678118654757 407.14487563463678 274.68899943532989 403.09725179837056 710.63433144765906 373.07086924543597 923.16481488143961 341.14352873984143 562.84712443426076 1.493692316614287 277.47685628938382 865.06182772075715 28.552037204092759 -0.60355339059327384 315.65833102453433 251.80704437368203 710.10383730914305 479.85753480986688 638.94903900158045 800.90229033017499 795.97043463786326 315.57807452263393 198.34129540982383 310.47848139030413 210.21865083908855 124.6757848265661 306.27408882518273 237.04860738886416 634.28169417318907 -0.5 684.39906311592938 573.2994410944458 -0.28130471682489672 -0.70710678118654757 893.37200061873784 100.29770559474373 295.1589367199079 282.76559161163124 55.877416576355621 796.75731330890824 265.25191815695467 157.09321790056632 2.7477068673728011 126.30486139228613 -260.76355196665708 0.14803724771236107 96.706989659471404 544.12395374111645 244.91085091581235
decision_type=2 2 2 2 2 2 2 8 2 8 2 2 2 2 2 2 10 2 2 2 2 2 10 10 2 10 2 2 2 8 2 2 2 2 2 2 2 2 2 2 2 2 2 2 2 2 2 2 2 10 2 2 2 2 2 10 2 2 2 8 8 2
left_child=2 4 7 11 8 12 17 23 20 25 36 31 21 14 44 52 35 46 28 47 34 27 -16 51 50 -4 39 -6 38 -26 -20 -3 -21 -23 37 48 -8 -2 -10 -22 58 -27 -37 61 -7 -19 -5 -12 -11 -14 -17 -1 59 -45 -43 -44 -15 -25 -33 -13 -55 -18
right_child=1 3 9 6 5 13 10 -9 18 16 19 15 49 56 22 24 43 45 30 32 26 33 -24 57 29 41 -28 -29 -30 -31 -32 40 -34 -35 -36 42 -38 -39 -40 -41 -42 54 55 53 -46 -47 -48 -49 -50 -51 -52 -53 -54 60 -56 -57 -58 -59 -60 -61 -62 -63
leaf_value=-0.12451674118961198 -0.050683290732683503 0.04891891460791601 -0.10118085660081391 0.12003992361282879 0.041331522238240687 0.067893693591746324 0.11337841266015442 -0.14682201329238687 -0.023668287947147832 -0.070339991386227041 0.15125659729178753 0.092067081046912039 -0.039182779805691723 0.049182392985603285 0.14968296741472478 0.11816452872720122 -0.039644016466100503 0.15711413110558567 0.038240490105384731 0.18002851397471659 0.0052880883032097002 0.055407873858806446 0.11267021166401364 -0.048454164241577356 0.11624101013439324 -0.084685920607462398 -0.037253218438536261 0.06502466052731401 0.038827041180867682 0.14478685815620615 0.079273118959109989 0.10656713817725588 0.19811865620147648 0.082401539141655586 0.0012666438308554127 -0.0060949066950684964 0.1507447048533925 -0.018169248139278754 0.019438033920687599 0.043090007579910779 0.067918584375591062 -0.071981153901062869 -0.029747219568977454 -0.012000977450784947 0.10125427479730295 0.13305415552858743 0.087739737780595364 0.17368197350024669 -0.043696953881710271 0.0020633833078981039 0.092197731237545197 -0.10645497190966763 0.10957406063124818 0.0060716134530664758 -0.04770029867868928 -0.058289703478214716 0.074679918142100482 -0.083125746805789102 0.082884915431863396 0.071734531427984652 0.031220121425674693 -0.013840449614189263
leaf_weight=1035 800.5 399.5 815 616.5 1798.5 499.5 423 23187 295 576.5 696 676.5 149 288 1000.5 719.5 153 1293 510 2634 508.5 687 1127.5 140.5 872 623 199.5 1707.5 556.5 2089.5 553.5 507 3913.5 2333 286.5 264.5 889.5 501.5 367.5 273 452.5 355.5 313 201 346.5 706 349.5 2586 384 199.5 425.5 1234 421.5 216 487 244.5 500 351.5 301.5 285 163.5 183
leaf_count=1022 548 167 718 211 864 200 146 23184 196 403 245 238 104 124 347 247 102 443 250 923 305 287 395 94 305 446 134 692 277 716 203 173 1369 854 180 174 309 319 207 137 172 252 209 131 120 246 121 911 258 129 151 1112 148 136 326 166 178 261 103 107 90 121
internal_value=0.000871504 0.109768 -0.128508 0.149622 0.0550536 0.0761042 0.169505 -0.142656 0.00888611 -0.0547412 0.178432 0.110343 0.0597409 0.105939 0.116561 0.120005 -0.0325064 0.13583 0.0374526 0.183664 -0.0164917 0.0637754 0.130239 -0.107562 0.128838 -0.0809811 0.00716661 0.0529158 0.017892 0.136495 0.0597553 0.078254 0.190916 0.0763201 -0.0311062 -0.0465691 0.13896 -0.0382376 0.000189108 0.0186205 0.0874127 -0.0695774 -0.0308795 -0.00507623 0.0818449 0.148806 0.108636 0.169053 -0.0598554 -0.0156535 0.108759 -0.114833 0.0935739 0.00697597 -0.058158 -0.0425139 0.0655777 -0.0735702 0.0980493 0.0862679 0.0171052 -0.0258702
internal_weight=67673 36745.5 30927.5 21257 15488.5 10636.5 14107 25948 4852 4979.5 11142 7150 6874.5 3762 2974 5489.5 2699 2965 2282.5 9829.5 2569.5 6526 2128 2761 4106.5 2280.5 981 3506 1219 2961.5 1063.5 1660.5 6547.5 3020 1588.5 1782.5 1312.5 1302 662.5 781.5 1261 1465.5 822 916.5 846 1999 966 3282 960.5 348.5 1145 2269 1383 580.5 842.5 557.5 788 492 808.5 961.5 379.5 336
internal_count=43706 14501 29205 7451 7050 4294 4924 25673 2756 3532 3903 2527 2930 1364 1062 1912 1790 1021 1133 3448 1623 2697 742 2489 1419 1742 576 1556 680 1021 453 615 2292 1141 1047 1210 455 867 403 442 448 1024 549 580 320 689 332 1156 661 233 398 2134 493 357 578 375 302 355 276 345 226 223
is_linear=0
shrinkage=0.01


Tree=6
num_leaves=63
num_cat=0
split_feature=23 31 23 23 31 23 8 5 33 29 8 8 8 5 14 31 31 23 31 31 29 23 29 8 14 2 10 34 33 23 24 23 29 9 27 33 29 23 1 21 29 5 27 27 8 23 29 24 23 33 2 14 23 2 29 2 29 29 27 27 27 23
split_gain=9.34564e+06 785155 316127 162197 147522 50717.1 37926.7 36726.1 34515.9 28397.2 21284.5 20540.1 15585.2 13559.8 11689.1 11560 8727.86 8589.62 8586.14 7658.72 6438.64 5793.24 4939.31 4917.91 4733.17 4459.06 4271.54 4192.05 4061.36 3789.77 3783.73 3621.07 3385.59 3293.3 2862.63 2853.77 2410.23 2326.21 2186.71 2184.79 2061.79 1891.81 1838.5 1833.35 1689.76 1459.67 1445.71 1442.72 1428.56 1428.3 1381.65 1189.28 1146.86 1035.49 1034.29 967.921 936.428 897.238 846.86 771.372 715.822 501.521
threshold=741.3014715490624 655.67587371340971 489.16345227561357 879.91392238724745 431.59044774148521 897.31299157621504 -0.9159756150367534 25.121528606024793 440.09065819061078 230.80407832937456 -0.70710678118654757 -0.5 -0.70710678118654757 1.522639982664624 11.350000000000003 796.75731330890824 341.14352873984143 664.13666859932209 562.84712443426076 573.2994410944458 277.47685628938382 867.43066408493053 28.552037204092759 -0.60355339059327384 11.450000000000001 127.86325531076797 -0.33346877891818688 118.62701114560581 792.51647481147927 818.86626032442166 246.08151662317781 795.97043463786326 132.95616143550998 -0.92263100495486394 0.37471398604913581 573.35476744809182 654.4500502589774 634.28169417318907 0.5007719468587194 0.21000000000000005 450.25283857636299 2.4890119561500157 0.31791745830581947 0.79708917120779754 -0.70710678118654757 815.76593469353941 295.1589367199079 271.40174465539144 858.79331913712053 75.86568758022149 141.07989969858292 18.150000000000002 613.88260154267334 126.30486139228613 551.74298826086442 106.14665221087945 607.12889885194329 457.20130209501423 0.23106346476165071 0.41127247828622743 0.43655033836810536 794.66723318452398
decision_type=2 2 2 2 2 2 2 8 2 8 2 2 2 10 2 2 2 2 2 2 10 2 10 2 2 2 2 8 2 2 2 2 8 2 2 2 8 2 2 2 10 10 2 2 2 2 10 2 2 2 2 2 2 2 10 2 10 10 2 2 2 2
left_child=2 4 7 10 8 11 14 20 16 22 15 18 19 24 26 29 32 40 25 35 49 34 -4 51 50 -6 -5 39 -28 61 58 -20 60 -17 -10 -7 -35 -24 -32 -16 52 -36 -34 -21 -15 -12 -13 -23 -31 -1 -8 -18 -11 -14 -40 -39 -26 -22 -19 -54 -2 -3
right_child=1 3 9 6 5 12 13 -9 21 17 45 46 53 44 27 33 23 30 31 43 57 47 37 -25 56 -27 28 -29 -30 48 38 -33 42 36 41 -37 -38 55 54 -41 -42 -43 -44 -45 -46 -47 -48 -49 -50 -51 -52 -53 59 -55 -56 -57 -58 -59 -60 -61 -62 -63
leaf_value=-0.12175838709845957 -0.075844862934604337 0.07375567105141452 -0.10017214254866318 0.15488395563184065 0.038165530961807671 0.07901213108480358 0.14407201603986322 -0.14535394229690282 -0.0041542648732500811 -0.069806806564822133 0.050690155186054138 -0.038797417879104616 0.048694802006632863 0.11760159390313285 0.17449034734660007 0.15945703762007013 0.033521639258261703 -0.057350064002966036 0.054855804174849421 0.14257645436278141 -0.083195041697154665 0.036581696126711846 -0.083842445092616708 -0.036885296422803755 0.11301069286228282 0.061491406616718446 0.17773013222968345 0.13635748571622772 0.19779083887924009 0.10483177472449687 -0.031217223917261925 0.081578406315879898 -0.037387150958180432 0.098859106142718089 0.037821621950636861 0.10963639697150745 0.13044522576549999 -0.048030445389931481 -0.0024292413292206685 0.15084697187378163 -0.028238492106794341 0.0052667980489477647 -0.012364589183550143 0.11826005144387908 0.084885726149687368 0.07637609961780617 0.0020430048216954978 0.066387411551348585 0.12461146084990253 -0.10386454015313037 0.16423304158991298 0.0082339602985845532 -0.066251602687344355 0.07393683327489825 0.024432853666343252 -0.071000164520913275 0.13943891733184496 -0.052520308634613169 -0.028511353887792773 -0.03728010551400588 -0.045157088872737589 0.09189529787624498
leaf_weight=1228.5 141 331.5 815 438 1374.5 545.5 685.5 23187 274.5 483 401.5 149 288 529.5 2347.5 399 312 152 687 798 320 244.5 623 199.5 280 2131.5 1948.5 535.5 3546 1655.5 217 2333 502.5 330 941.5 859.5 2142 500 527.5 688.5 304.5 223.5 721.5 771 291 606.5 199.5 598.5 628.5 1040.5 2053.5 469.5 145.5 500 193.5 342.5 763.5 172 359 317 223.5 655.5
leaf_count=1208 105 121 718 164 677 213 234 23184 170 333 170 104 124 181 821 136 163 104 287 275 238 120 446 134 101 879 689 186 1234 581 145 854 335 119 458 304 738 339 340 236 203 139 458 270 101 215 129 246 219 926 712 279 104 178 109 239 265 117 240 212 149 228
internal_value=0.000863717 0.108673 -0.127224 0.148129 0.0545046 0.0753451 0.167813 -0.14123 0.00879784 -0.054197 0.109244 0.0591444 0.104884 0.143985 0.17931 0.116254 -0.0163272 -0.0321839 0.0631387 0.1154 -0.10649 0.03708 -0.080175 0.00709523 0.152073 0.0523875 0.188187 0.164437 0.190765 0.103137 -0.0155482 0.0755581 -0.0307962 0.131088 0.0247872 0.0979256 0.126343 -0.0688854 -0.00356283 0.169265 -0.0513786 0.0316222 -0.022713 0.130851 0.106322 0.0663205 -0.0154989 0.057906 0.110416 -0.113687 0.159332 0.0184362 -0.0587104 0.0649261 0.00480489 -0.0575803 0.132658 -0.0728416 -0.0373757 -0.0467553 -0.057532 0.0860298
internal_weight=67673 36745.5 30927.5 21257 15488.5 10636.5 14107 25948 4852 4979.5 7150 6874.5 3762 4603 9504 6142 2569.5 2699 6526 2974 2761 2282.5 2280.5 981 3782.5 3506 5932.5 3571.5 5494.5 3271 1449 3020 1588.5 2871 1439.5 1405 2472 1465.5 938 3036 1250 1165 1224 1569 820.5 1008 348.5 843 2284 2269 2739 781.5 945.5 788 721 842.5 1043.5 492 511 462.5 364.5 987
internal_count=43706 14501 29205 7451 7050 4294 4924 25673 2756 3532 2527 2930 1364 1594 3330 2142 1623 1790 2697 1062 2489 1133 1742 576 1312 1556 2087 1243 1923 1149 938 1141 1047 993 767 517 857 1024 594 1057 852 597 793 545 282 385 233 366 800 2134 946 442 649 302 449 578 366 355 344 316 254 349
is_linear=0
shrinkage=0.01


Tree=7
num_leaves=63
num_cat=0
split_feature=23 31 23 23 31 23 8 5 33 28 8 8 18 8 0 31 18 29 31 31 0 8 29 23 23 8 14 33 33 23 31 23 29 23 9 31 24 29 24 18 30 27 8 29 23 23 29 33 23 2 18 35 2 28 18 29 29 5 27 30 18 23
split_gain=9.15994e+06 769563 309814 158967 144596 49714.7 37167.4 35988.1 33833.6 27840.8 20860.4 20133.2 16611.4 15274.5 13399.9 11329.7 9433.43 8842.07 8555.75 8415.28 7559.49 6412.94 6308.4 5692.69 5457.81 4821.17 4583.63 4389.14 4199.16 3713.21 3677.52 3548.32 3319.56 3267.1 3228.79 3032.51 2780.85 2360.56 2184.8 1834.7 1775.21 1664.66 1604.93 1566.81 1483.36 1430.29 1417.48 1401.22 1400.17 1378.54 1193.32 1025.19 1014.5 1006.99 985.568 963.452 932.787 892.669 701.703 651.668 603.135 490.933
threshold=741.3014715490624 655.67587371340971 489.16345227561357 879.91392238724745 431.59044774148521 897.31299157621504 -0.9159756150367534 25.121528606024793 440.09065819061078 328.60479837147864 -0.70710678118654757 -0.5 0.25000000000000006 -0.70710678118654757 49.087164244151161 796.75731330890824 1.0000000180025095e-35 55.710163088421744 341.14352873984143 562.84712443426076 48.048110477749454 -0.5 277.47685628938382 839.18830989973833 899.6430678374544 -0.60355339059327384 11.450000000000001 577.02669554264583 800.90229033017499 818.86626032442166 507.04804859163727 795.97043463786326 132.95616143550998 613.88260154267334 -0.92263100495486394 839.40049813909206 242.26950656102321 654.4500502589774 250.06968869679059 0.70000000000000007 0.34554736832736693 0.5751703830313627 -0.70710678118654757 273.41259097625385 613.88260154267334 815.76593469353941 295.1589367199079 55.877416576355621 858.79331913712053 141.07989969858292 0.25000000000000006 -260.76355196665708 126.30486139228613 537.13614329600023 0.70000000000000007 286.39908053444009 607.12889885194329 2.0345332976248787 0.43655033836810536 1.0000000180025095e-35 0.70000000000000007 794.66723318452398
decision_type=2 2 2 2 2 2 2 8 2 10 2 2 2 2 2 2 2 8 2 2 2 2 10 2 2 2 2 2 2 2 2 2 8 2 2 2 2 8 2 2 10 2 2 10 2 2 10 2 2 2 2 2 2 10 2 8 10 10 2 10 2 2
left_child=2 4 7 10 8 11 12 22 18 17 15 19 24 16 26 29 20 59 32 27 -7 41 47 36 -5 50 49 -6 -26 61 -18 -21 58 -19 -17 60 -10 -36 -25 -34 -35 -11 -16 -42 -23 -12 -13 -1 -31 -8 -20 -24 -15 -43 -38 -46 -28 -40 -2 -4 -14 -3
right_child=1 3 9 6 5 13 14 -9 23 21 45 46 35 52 42 34 30 33 25 31 -22 44 51 38 28 -27 56 -29 -30 48 -32 -33 39 40 37 -37 54 -39 57 -41 43 53 -44 -45 55 -47 -48 -49 -50 -51 -52 -53 -54 -55 -56 -57 -58 -59 -60 -61 -62 -63
leaf_value=-0.12205992434398237 -0.075099628644538868 0.073023635207000601 -0.11642644530594952 0.16513589625902839 0.042376590658900211 0.15625769530324665 0.1425454850393508 -0.14390056581730989 -0.0040932900493773888 -0.024919029468252918 0.050186391355156311 -0.038415844898437315 0.14510044415742712 0.048212044803287821 0.11606642315822863 0.15787239967143699 0.062582535628695035 -0.075709352316262329 0.04037862094328365 0.054309234631216077 0.11192572498091977 -0.062127787468045259 -0.04735696242405818 0.028597300809374643 0.17700830481214741 -0.03652100850007322 0.11189058576853929 0.065338579741012495 0.19518245917865959 0.10378503757806483 0.10311361391369511 0.080763495686196646 -0.0097477387338361053 -0.073229624745527314 0.097877947334060092 0.16480342733182579 0.03959842888331936 0.12914229504154345 0.068251233374570217 -0.03435346060166191 -0.056031001089404481 0.00012554850074918532 0.084044097444674032 -0.032790325149545038 -0.045577435354338329 0.075615473842777448 0.0020228275096523438 -0.10432802722466605 0.12337028302405792 0.16259270938598924 0.011234256512663321 -0.081544039380752428 0.073201144423354333 0.028596208250488746 0.017457166539546678 -0.020651328193589637 0.13819376837292635 0.044086437540155066 -0.0447105133047212 -0.091770269796359147 0.12277739447684743 0.090979836526975083
leaf_weight=1035 141 331.5 195.5 1557 2064.5 679.5 688.5 23187 315 196 401.5 149 402 288 523.5 399 317.5 896.5 184.5 687 1021.5 212.5 140.5 286.5 2680.5 199.5 280 1441.5 3760.5 1655.5 955.5 2333 593.5 303.5 330 609 502 2142 579 630.5 668.5 428.5 291 553 276.5 606.5 199.5 1234 628.5 2053.5 597 351.5 500 173.5 354 381 766.5 246 223.5 694.5 495 655.5
leaf_count=1022 105 121 189 554 983 234 235 23184 196 130 170 104 141 124 179 136 130 631 94 287 356 146 94 149 939 134 101 573 1315 581 342 854 372 222 119 211 245 738 237 421 452 276 101 370 188 215 129 1112 219 712 348 261 178 94 194 254 266 112 149 580 170 228
internal_value=0.000855982 0.107589 -0.125953 0.146651 0.0539609 0.0745937 0.166138 -0.139818 0.00870969 -0.0536585 0.108155 0.0585538 0.17752 0.103839 0.14255 0.115095 0.11425 -0.0704358 -0.0161657 0.0625083 0.129853 -0.02028 -0.105429 0.0367109 0.183359 0.0070244 0.150553 0.0518644 0.187695 0.102108 0.0931668 0.0748038 -0.0304914 -0.0603786 0.129781 0.146239 0.0212197 0.125082 0.0529248 -0.0224871 -0.0512406 0.000175661 0.104948 -0.0456183 -0.0390182 0.0656607 -0.0153458 -0.112553 0.109314 0.157703 0.0182535 -0.0721206 0.0642811 0.00845665 0.0305485 -0.0313044 0.131463 0.0612309 -0.0569656 -0.0975253 0.133185 0.085174
internal_weight=67673 36745.5 30927.5 21257 15488.5 10636.5 14107 25948 4852 4979.5 7150 6874.5 9504 3762 4603 6142 2974 3311.5 2569.5 6526 1701 1668 2761 2282.5 7998 981 3788.5 3506 6441 3271 1273 3020 1588.5 2421.5 2871 1506 1171 2472 1111.5 1224 1525 798 814.5 1221.5 870 1008 348.5 2269 2284 2742 781.5 492 788 602 856 657.5 1046.5 825 364.5 890 897 987
internal_count=43706 14501 29205 7451 7050 4294 4924 25673 2756 3532 2527 2930 3330 1364 1594 2142 1062 2444 1623 2697 590 1088 2489 1133 2808 576 1314 1556 2254 1149 472 1141 1047 1675 993 522 635 857 498 793 1044 500 280 822 588 385 233 2134 800 947 442 355 302 370 439 442 367 349 254 769 311 349
is_linear=0
shrinkage=0.01


Tree=8
num_leaves=63
num_cat=0
split_feature=23 31 23 23 31 23 22 5 33 29 25 22 8 8 25 25 28 25 22 23 26 29 25 8 22 5 29 25 29 22 29 26 26 33 25 25 25 29 29 7 8 23 23 9 4 31 8 22 26 33 29 26 25 26 1 31 29 22 29 23 18 26
split_gain=8.97793e+06 754279 303629 155802 141737 48215.4 39556.5 35265 34255.6 27356.6 21356.9 20738.3 19293 15011.9 13249.8 12394.7 9865.22 9817.43 9377.55 9071.53 8908.41 7973.81 7041.79 11770.7 6837.49 6338.38 6180.88 5574.49 4745.59 4354.79 4163.57 4063.3 3997.77 3912.8 3528.94 3379.6 2854.33 2802.3 2542.27 2302.94 2256.74 2247.38 2189.32 2086.55 1965.84 1918.16 1879.85 1855.74 1447.28 1376.36 1322.35 1155.65 1096.96 1065.27 1016.47 1010.33 872.721 749.599 686.529 661.157 661.085 626.755
threshold=741.3014715490624 655.67587371340971 489.16345227561357 879.91392238724745 435.74988168111287 897.31299157621504 801.52809409585245 25.121528606024793 444.49217472834044 230.80407832937456 508.74386805627455 860.97094023352224 -0.5 -0.70710678118654757 407.14487563463678 274.68899943532989 403.09725179837056 373.07086924543597 710.63433144765906 923.16481488143961 357.80308984365053 472.6725292800532 256.54591981532366 -0.5 638.94903900158045 1.493692316614287 277.47685628938382 169.37672108773504 28.552037204092759 479.85753480986688 710.10383730914305 233.97203661204648 282.76559161163124 800.90229033017499 198.34129540982383 310.47848139030413 134.25619688001208 256.63476727238771 286.39908053444009 0.60355339059327384 -0.5 634.28169417318907 684.39906311592938 -0.85206963063867713 -0.28130471682489672 573.2994410944458 -0.70710678118654757 893.37200061873784 100.29770559474373 75.86568758022149 299.41383245621643 427.98101969398465 265.25191815695467 157.09321790056632 0.35937765300344415 796.75731330890824 457.20130209501423 781.15179527406167 359.42026503142978 867.43066408493053 0.70000000000000007 329.17498661527947
decision_type=2 2 2 2 2 2 2 8 2 8 2 2 2 2 2 2 10 2 2 2 2 8 2 2 2 10 10 2 10 2 8 2 2 2 2 2 2 8 10 2 2 2 2 2 2 2 2 2 2 2 10 2 2 2 2 2 10 2 10 2 2 2
left_child=2 4 7 11 8 12 18 26 20 28 35 24 21 14 45 55 34 31 46 47 22 38 37 -24 -3 -16 49 -23 -4 -19 -17 36 39 -21 48 -8 -10 -2 -6 -26 -36 -30 -18 -32 -20 -7 -5 -12 -11 -1 -14 -22 -44 -43 -42 -13 -28 -34 -15 -31 -37 -33
right_child=1 3 9 6 5 13 10 -9 17 16 19 15 50 58 25 30 42 29 44 33 51 27 23 -25 32 -27 56 -29 41 59 43 61 57 -35 40 60 -38 -39 -40 -41 54 53 52 -45 -46 -47 -48 -49 -50 -51 -52 -53 -54 -55 -56 -57 -58 -59 -60 -61 -62 -63
leaf_value=-0.11935302832763821 -0.059072958759089245 0.04723810324695573 -0.098225502203363887 0.11643767665391593 0.021282436590422601 0.065701221663229864 0.10936745443999697 -0.14246171224569401 -0.024301428132527128 -0.06848486329710339 0.14674861041835657 0.085982438026842536 -0.036204491814450609 0.049262177850947032 0.1455923052448575 0.112462283726317 -0.025039865991081413 0.037103020061851129 0.1524223905923697 0.17479201397779612 0.0089304395247881922 0.052207148840933304 0.030341019210616136 -0.041849718247110958 0.1098209907618098 0.10971954646338718 -0.081612364175707802 0.076642814665208711 -0.082256881330224824 0.063910837872837578 0.16338362079866553 0.024582538994210725 0.060310750132046856 0.19236200210049489 -0.0055551960756513898 0.15557403111435356 0.018876694459902563 -0.027643584316773252 0.050557229614778904 0.082028494451736086 -0.056600150922049397 -0.070003270791146349 -0.011800753426273567 0.1344647590505908 0.12879211843224084 0.097847277933683655 0.08506076901473783 0.16853077697182844 -0.042533190028999787 -0.10178760477360463 0.0030239711997941611 0.038913027129704326 0.016913414502721182 -0.046187354621227236 -0.028690600445561949 0.10789864424658484 -0.051378133930586128 0.081832347114704898 0.070793453633093514 0.087723424476267534 0.131352775319592 0.045912842242139748
leaf_weight=1228.5 479 399.5 815 616.5 380 492 423 23187 274 576.5 696 804 155 266 1000.5 879.5 336 511.5 1293 2634 331 1369.5 482 420.5 1151.5 1115.5 320 3189 623 271.5 381 274.5 306.5 3913.5 264.5 528 340.5 725.5 1504.5 476 244.5 355.5 201 1797 706 346.5 349.5 2586 384 1040.5 186 213 379.5 487 313 393 172 562 514.5 327 361.5 319.5
leaf_count=1208 338 167 718 211 207 197 146 23184 182 403 245 288 108 112 347 308 223 251 443 923 200 589 259 284 395 391 238 1190 446 104 129 153 120 1369 174 184 192 480 671 163 166 252 131 618 246 120 121 911 258 926 120 109 226 326 209 138 117 201 187 114 125 145
internal_value=0.000848363 0.106515 -0.124694 0.145188 0.0534228 0.0742116 0.16448 -0.138421 0.00939858 -0.0531252 0.173171 0.107077 0.0582785 0.103086 0.113429 0.121197 -0.031519 0.0374563 0.131695 0.17829 -0.0151428 0.0621579 -0.0244586 -0.00328973 0.0862333 0.126845 -0.104378 0.0693398 -0.0786228 0.05891 0.131983 0.0176496 0.0924112 0.185367 -0.0452141 0.134548 -0.000355978 -0.0402595 0.0447034 0.101846 -0.0297942 -0.0675556 -0.00480579 0.139717 0.144261 0.0792663 0.10536 0.164034 -0.0582729 -0.11143 -0.0148681 0.02084 0.00692019 -0.0564436 -0.0411734 0.0934087 -0.0714064 0.0744608 0.0636681 0.0772736 0.146154 0.0362419
internal_weight=67673 36745.5 30927.5 21257 15488.5 10519 14107 25948 4969.5 4979.5 11142 7150 6784 3735 2954.5 4254.5 2699 2318.5 2965 9829.5 2651 6443 2107 902.5 2895.5 2116 2761 4558.5 2280.5 1110 3057.5 1208.5 2496 6547.5 1782.5 1312.5 614.5 1204.5 1884.5 1627.5 822 1465.5 916.5 2178 1999 838.5 966 3282 960.5 2269 341 544 580.5 842.5 557.5 1197 492 868.5 780.5 598.5 889.5 594
internal_count=43706 14501 29205 7451 7050 4239 4924 25673 2811 3532 3903 2527 2885 1354 1055 1481 1790 1141 1021 3448 1670 2657 1361 543 1046 738 2489 1779 1742 469 1055 672 879 2292 1210 455 374 818 878 558 549 1024 580 747 689 317 332 1156 661 2134 228 309 357 578 375 426 355 321 299 218 309 298
is_linear=0
shrinkage=0.01


Tree=9
num_leaves=63
num_cat=0
split_feature=23 32 23 23 32 23 22 5 33 29 25 22 8 8 25 25 25 22 23 25 26 32 22 25 8 22 0 29 29 7 22 29 26 26 33 23 25 26 25 29 22 23 4 32 8 22 4 33 29 29 23 26 26 35 32 2 29 22 30 26 29 23
split_gain=8.79954e+06 739293 297568 152697 138919 47262.4 38765.1 34556.3 33578.6 26813.2 20924.9 20325.3 18910.6 14712.4 12984.4 12146.9 9623.36 9189.34 8889.15 8882.07 8732.74 7926.4 7486.48 6902.28 11537.8 6701.2 6212.04 6055.84 4650.52 4634.36 4271.64 4080.15 3983.23 3917.34 3833.77 3472.26 3312.03 2865.18 2797.99 2746.71 2267.77 2202.22 1925.64 1880.05 1841.71 1817.11 1641.3 1350.58 1304.37 1296.52 1141.47 1132.84 1044.03 997.918 990.221 963.695 742.001 734.189 675.819 614.181 564.147 523.585
threshold=741.3014715490624 655.67587371340971 489.16345227561357 879.91392238724745 435.74988168111287 897.31299157621504 801.52809409585245 25.121528606024793 444.49217472834044 230.80407832937456 508.74386805627455 860.97094023352224 -0.5 -0.70710678118654757 407.14487563463678 274.68899943532989 373.07086924543597 710.63433144765906 923.16481488143961 222.68217006075687 357.80308984365053 562.84712443426076 402.86945610472662 256.54591981532366 -0.5 638.94903900158045 48.048110477749454 277.47685628938382 28.552037204092759 0.37940952255126054 464.30441405142898 710.10383730914305 233.97203661204648 282.76559161163124 800.90229033017499 795.97043463786326 310.47848139030413 113.30748717649358 134.25619688001208 256.63476727238771 741.83196835991873 634.28169417318907 -0.28130471682489672 573.2994410944458 -0.70710678118654757 893.37200061873784 0.16064043099025183 55.877416576355621 350.79600591612979 299.41383245621643 684.39906311592938 427.98101969398465 157.09321790056632 -260.76355196665708 796.75731330890824 126.30486139228613 379.34855880215201 781.15179527406167 0.35749218231151536 329.17498661527947 551.74298826086442 867.43066408493053
decision_type=2 2 2 2 2 2 2 8 2 8 2 2 2 2 2 2 2 2 2 2 2 2 2 2 2 2 2 10 10 2 2 8 2 2 2 2 2 2 2 8 2 2 2 2 2 2 2 2 10 10 2 2 2 2 2 2 10 2 10 2 10 2
left_child=2 4 7 11 8 12 17 27 20 28 36 25 21 14 43 54 32 44 45 37 23 29 48 39 -25 -3 -16 47 -4 -6 -18 -17 38 40 -20 -23 -8 58 -10 -2 -27 -30 -19 -7 -5 -12 -33 -1 -21 -14 -24 -22 -43 -29 -13 -15 -39 -35 -11 -34 -52 -32
right_child=1 3 9 6 5 13 10 -9 16 19 18 15 49 55 26 31 30 42 34 22 51 35 50 24 -26 33 -28 53 41 -31 61 46 59 57 -36 -37 -38 56 -40 -41 -42 52 -44 -45 -46 -47 -48 -49 -50 -51 60 -53 -54 -55 -56 -57 -58 -59 -60 -61 -62 -63
leaf_value=-0.11965161210025649 -0.058485296260070367 0.046768659591971344 -0.097246250296951442 0.11527800281136409 0.058367255134103749 0.065047530924827915 0.10828020592553916 -0.14103724806230455 -0.02406061110531349 -0.083577916060283683 0.14528637802933658 0.085125278649136882 -0.035848193747183635 0.047333789271879367 0.14414000908078131 0.11134084893665076 0.035340623468281047 0.15090110766110112 0.17304575184932044 -0.049769539380009283 0.0088418045055785807 0.053138299983175791 -0.01228002171709687 0.030039174217188692 -0.041433694669998848 0.087319524249296454 0.1086248052922579 -0.046283273896970949 -0.081437599688029869 0.032339869521676792 0.063198027701250145 0.15565976845509058 0.024338932434359185 0.059712522714654992 0.19043961133429282 0.079300058218314554 0.14470085507818403 -0.04380209811255336 0.018689303475027532 -0.027368097774777819 0.11246951427388137 -0.069308127071968595 0.12750874113178454 0.096875813721244181 0.084216200477358977 0.16684709685441032 0.1324274621335931 -0.10224355078302701 -0.022606042922617725 0.0029941328583823752 0.0093354008231551367 0.038528411013620915 -0.045727839819531393 -0.079992751154185693 0.10682647778020345 0.071807403600468014 -0.019954542993218638 0.081017647853881741 -0.057909356793967699 0.045457278194819921 0.031799395128467384 0.084346251220926233
leaf_weight=1035 479 399.5 815 616.5 2451 492 423 23187 274 154.5 696 804 155 286.5 1000.5 879.5 477 1293 2634 368.5 331 687 181 482 420.5 764 1115.5 140.5 623 972 277.5 535.5 274.5 306.5 3913.5 2333 889.5 297.5 340.5 725.5 863.5 355.5 706 346.5 349.5 2586 1642.5 1234 361.5 186 355.5 213 487 351.5 393 494 253.5 562 560.5 319.5 166.5 355.5
leaf_count=1022 338 167 718 211 1020 197 146 23184 182 117 245 288 108 123 347 308 239 443 923 249 200 287 120 259 284 263 391 94 446 496 106 183 153 120 1369 854 309 200 192 480 295 252 246 120 121 911 564 1112 241 120 224 109 326 261 138 176 169 201 379 145 91 124
internal_value=0.000840855 0.105453 -0.123448 0.143739 0.0528902 0.0734714 0.162838 -0.137037 0.00930582 -0.052597 0.171442 0.10601 0.0576964 0.10206 0.112298 0.119989 0.0370849 0.130382 0.176509 -0.0312064 -0.0149917 0.0615373 -0.0140929 -0.0242153 -0.00325688 0.0853746 0.125579 -0.103338 -0.0778402 0.0510128 0.0583256 0.130667 0.0174746 0.0914908 0.183515 0.0734058 0.13321 -0.0504917 -0.000352233 -0.0398589 0.100831 -0.0668837 0.142822 0.0784788 0.104312 0.162396 0.138323 -0.110318 -0.0364752 -0.0147211 0.00916058 0.0206342 -0.0558829 -0.0706996 0.0924789 0.0630356 -0.0330153 0.0737206 -0.0637626 0.0358829 0.0166657 0.0753995
internal_weight=67673 36745.5 30927.5 21257 15488.5 10519 14107 25948 4969.5 4979.5 11142 7150 6784 3735 2954.5 4254.5 2318.5 2965 9829.5 2699 2651 6443 1433 2107 902.5 2895.5 2116 2761 2280.5 3423 1110 3057.5 1208.5 2496 6547.5 3020 1312.5 1266 614.5 1204.5 1627.5 1465.5 1999 838.5 966 3282 2178 2269 730 341 703 544 842.5 492 1197 780.5 551 868.5 715 594 522 633
internal_count=43706 14501 29205 7451 7050 4239 4924 25673 2811 3532 3903 2527 2885 1354 1055 1481 1141 1021 3448 1790 1670 2657 925 1361 543 1046 738 2489 1742 1516 469 1055 672 879 2292 1141 455 865 374 818 558 1024 689 317 332 1156 747 2134 490 228 435 309 578 355 426 299 369 321 496 298 315 230
is_linear=0
shrinkage=0.01


Tree=10
num_leaves=63
num_cat=0
split_feature=8 31 0 31 31 4 28 2 22 31 2 2 8 4 18 18 18 22 28 22 31 18 18 22 22 31 2 22 26 18 22 26 26 31 3 26 24 18 26 22 14 22 22 27 22 28 3 18 22 26 2 30 0 2 28 22 17 5 40 18 18 12
split_gain=8.66199e+06 777096 234199 132027 127601 55630.5 40116.2 34380.8 32288.2 27775.2 22319.3 20287.9 16928.7 15581.4 12041.5 10940.4 8788.63 8737.49 8673.43 8061.96 7639.18 7154.3 6574.83 6108.95 5752.17 5413.87 5322.06 5316.59 5064.77 5419.2 4977.23 4860.71 4356.05 4321.8 4177.1 3526.27 3251.08 3237.69 3207.64 2864.35 2855.73 2536.15 1846.45 1796.27 1762.81 1714.89 1711.67 1686.23 1643.64 1541.17 1399.14 1120.09 1068.07 1018.1 1008.13 998.143 957.842 955.906 804.783 741.837 740.372 729.059
threshold=-0.5 605.16158411864774 88.599358807513269 804.36426811206218 387.38576196641066 -0.11734788628671554 220.18292160204382 124.45947557608513 710.63433144765906 230.9614315318602 127.86325531076797 247.57474421727133 -0.70710678118654757 -0.083741754796390136 0.25000000000000006 1.0000000180025095e-35 1.0000000180025095e-35 374.19571501731434 28.88621628305123 927.26134796969529 491.78998450024898 1.0000000180025095e-35 0.25000000000000006 825.2983826580695 585.50313290378278 540.78719641926023 121.40832324653003 791.83872946426925 450.3733542062206 1.0000000180025095e-35 879.34698630863875 387.52290202918613 81.835129483979983 688.89622011897143 34.646135995231482 343.60142169012801 569.93726151090834 0.25000000000000006 33.42549853639283 990.14122208986032 15.550000000000002 466.66223886153836 576.37032257911517 1.0766336467575603 638.94903900158045 256.59554216187018 29.34020983894364 1.0000000180025095e-35 771.34080504563383 288.65635769151476 127.86325531076797 0.33234220109718615 65.776003116570394 84.01815308730788 116.27697186693453 233.28213945980573 4.4336433993520741 2.7477068673728011 0.75272459717574958 1.0000000180025095e-35 0.25000000000000006 -0.68391942162460984
decision_type=2 2 2 2 2 2 8 2 2 2 2 2 2 2 2 2 2 2 10 2 2 2 2 2 2 2 2 2 2 2 2 2 2 2 2 2 2 2 2 2 2 2 2 2 2 8 2 2 2 2 2 10 2 2 10 2 2 10 2 2 2 2
left_child=1 4 6 5 9 8 18 19 24 21 28 22 15 20 41 30 23 26 -2 48 47 -1 27 -10 -3 42 57 -9 29 46 -7 40 51 -17 -22 -21 -31 53 -28 60 -16 52 -15 54 -14 -34 -6 -12 -5 -50 -26 -23 -11 -19 -20 -40 -27 59 -24 -8 -13 -46
right_child=2 3 -4 7 10 12 17 11 16 14 13 39 44 25 31 33 -18 37 43 35 34 32 58 -25 50 56 38 -29 -30 36 -32 -33 45 -35 -36 -37 -38 -39 55 -41 -42 -43 -44 -45 61 -47 -48 -49 49 -51 -52 -53 -54 -55 -56 -57 -58 -59 -60 -61 -62 -63
leaf_value=0.0081403004086919792 -0.11333695277236698 0.06139284532778972 -0.13955391074824294 0.089170846442866131 0.027559441572270575 0.11381377876873318 -0.046825714477775053 0.14672559790155995 0.1462720318042241 0.035800803356087964 0.077371429194256228 0.13780811992183112 0.042208296422772643 0.017672777136039233 0.019113031849548389 0.080858963849194304 0.12524654918033259 -0.026333140443639096 -0.084955486101824504 0.15761262685026636 0.070861808914819968 -0.09524818743290922 0.12990390188952322 0.17629552084185376 0.087450775252655155 0.083147323797847228 -0.066515710716282483 0.18354729083825685 0.061636629497854686 0.0048982274152484595 0.16077696498074409 0.032701889034034912 -0.046936007596845186 0.10174490063234391 0.10766149707062099 0.12309253510980099 0.03917931893153264 -0.042268358084898941 -0.047622279359939255 0.15691830711749932 -0.017303619727405697 0.059336364229041413 0.04939830995340385 -0.094285409864062156 0.079310951189096632 -0.012015319719604171 0.060060576847868412 0.05260186292108187 0.12570177820033809 0.095453286539349286 0.11473979027124573 -0.057365451054022715 0.0071699220390276921 0.0034200162165330412 -0.067085901547279489 -0.022994198583992275 0.062138612305063415 -0.084144475030379445 0.1577680977159425 -0.076230050137776159 0.11710915759870201 0.054866252913377364
leaf_weight=235.5 1599 367.5 23416 305 244 918 193.5 495 1729.5 430 778.5 582 488.5 211.5 260.5 1873 1083 163 696.5 1015 417 220.5 279 1342.5 317.5 601.5 407 5932.5 672 813.5 334.5 312 570 2385.5 1557 523.5 419 443 256 642 1180 412.5 1774.5 931.5 324 192 549 482.5 814 285.5 867 154 192 372 793.5 504.5 444 594 529.5 204 547 266
leaf_count=138 1529 139 23410 109 138 320 130 168 606 214 290 206 214 129 146 681 380 110 548 354 149 183 100 467 110 218 293 2073 256 489 114 165 386 835 548 183 203 303 172 226 765 174 779 798 112 122 212 207 280 104 298 106 120 243 568 337 176 446 184 144 189 108
internal_value=0.000577352 0.102704 -0.124248 0.136251 0.0407058 0.113188 -0.0741385 0.159952 0.13609 -0.00506682 0.061941 0.169714 0.0933049 0.072303 0.0130589 0.100415 0.150683 -0.047261 -0.0950611 0.129949 0.0876104 -0.0418614 0.177236 0.159533 0.0968259 0.055901 -0.0584979 0.180774 0.0378155 0.0298338 0.126671 -0.00290602 -0.0522396 0.0926174 0.0999998 0.146102 0.0166284 -0.0223436 -0.0438091 0.138756 -0.010679 0.0400704 0.0460587 -0.0828782 0.0568001 -0.0382379 0.0502097 0.0680364 0.112009 0.118104 0.107646 -0.0802203 0.0270671 -0.00567877 -0.0755841 -0.0314462 0.0744188 -0.0756152 0.148614 -0.0623609 0.128082 0.0686103
internal_weight=67943 37369.5 30573.5 24246.5 13123 12296.5 7157.5 11950 5707 4159 8964 9007 6589.5 6266.5 2787 5511 4155 3137 4020.5 2943 3235 1372 7236 3072 1552 3031.5 2159 6427.5 2697.5 2025.5 1252.5 1752.5 1136.5 4258.5 1974 1538.5 1232.5 978 1167.5 1771 1440.5 1034.5 1986 2421.5 1078.5 762 793 1261 1404.5 1099.5 1184.5 374.5 622 535 1490 760.5 1045.5 991.5 808.5 397.5 1129 590
internal_count=43904 14873 29031 8560 6313 4384 5621 4176 2000 2519 3794 3146 2384 2496 1584 1950 1453 2178 3443 1030 1194 935 2525 1073 547 1302 1522 2241 1298 1042 434 1076 797 1516 697 537 692 656 802 621 911 508 908 1914 434 508 350 497 493 384 408 289 334 353 1116 509 394 720 284 274 395 220
is_linear=0
shrinkage=0.01


Tree=11
num_leaves=63
num_cat=0
split_feature=23 31 23 23 31 22 2 5 33 29 22 23 26 7 31 22 31 31 28 5 29 34 23 23 22 29 29 23 29 26 2 23 30 31 9 15 19 31 31 24 23 23 26 23 29 33 28 30 29 21 22 26 24 26 26 15 29 35 23 29 28 11
split_gain=8.49703e+06 714250 275566 169192 120526 39421.2 37798.7 33107.5 29644.1 24873 22985.3 20021.3 16991.9 11796.1 11090.4 9347.61 8786.98 8244.45 8188.88 7543.24 6024.3 5773.02 5430.85 5115.66 5093.78 4680.83 4554.5 3814.83 3222.71 3054.3 2946.47 2938.92 2882.13 2863.21 2744.87 2668.01 2666.2 2662.65 2345.45 2340.44 2180.86 1968.34 1858.34 1762.79 1756.37 1745.32 1558.18 1361.26 1169.35 1068.78 1048.97 975.769 959.086 956.444 921.447 903.144 878.003 840.597 829.652 816.21 799.037 716.568
threshold=741.3014715490624 637.93615278671916 489.16345227561357 881.22094891543577 428.18358980192897 801.52809409585245 127.86325531076797 25.121528606024793 444.49217472834044 234.90786648521023 781.15179527406167 840.74707893691595 312.16852190817332 0.78656609248549325 835.78041516545943 676.59029910537231 285.11517092920315 551.3838287787587 399.10239622152864 2.6025288411429055 307.89176376081707 108.1912324175471 867.43066408493053 923.90250142501429 638.94903900158045 55.710163088421744 286.39908053444009 849.90748925151513 230.80407832937456 63.724513376909648 134.0651431172208 854.0108015936986 0.86132597569831948 804.36426811206218 -0.86095304316285715 38.205000000000005 0.55000000000000016 562.84712443426076 562.84712443426076 200.44576205274271 613.88260154267334 634.28169417318907 225.46749283985858 684.39906311592938 812.11772383743744 649.44810176904218 1.0000000180025095e-35 0.29596994203987737 647.12202859687579 0.21000000000000005 624.48249928214614 280.43323454996818 279.34185510735819 272.33017744428315 192.49754283502685 25.465000000000003 307.89176376081707 -248.91373858350343 787.12597634961219 375.17142004072554 533.26706935484003 -0.26781182513105667
decision_type=2 2 2 2 2 2 2 8 2 8 2 2 2 2 2 2 2 2 10 10 10 10 2 2 2 10 8 2 8 2 2 2 10 2 2 2 2 2 2 2 2 2 2 2 8 2 8 10 8 2 2 2 2 2 2 2 8 2 2 10 10 2
left_child=2 4 7 10 8 15 13 20 16 25 24 37 21 26 27 50 28 35 29 36 46 23 39 -7 -3 -4 -6 45 42 49 -17 53 -19 -14 -16 -13 -18 58 -28 -10 -31 -27 -2 -20 -36 -12 -1 -30 -29 -11 -5 -43 -24 -26 -32 -41 -15 -22 -8 -42 -45 -35
right_child=1 3 9 5 6 12 11 -9 22 18 14 17 33 56 34 30 19 32 43 -21 57 -23 52 -25 31 41 38 48 47 40 54 -33 -34 61 44 -37 -38 -39 -40 55 59 51 -44 60 -46 -47 -48 -49 -50 -51 -52 -53 -54 -55 -56 -57 -58 -59 -60 -61 -62 -63
leaf_value=-0.11660493414576462 -0.067097935419326862 0.043020246829652414 -0.093989974656699546 0.078722063834016975 0.011263046046387564 0.16315327778696712 0.040671202509548657 -0.13824008205654834 -0.0064686415821505307 -0.052452122389696466 0.082792394014107235 0.088601405404502828 0.12317175431588438 -0.033371394745026456 0.15656592073862291 0.11239672261181322 0.01815081812145691 0.1194877154705089 -0.02510535177912597 -0.059601582443272627 -0.044938024274663986 0.13170934662947784 0.039189431174072462 0.18042582407999558 0.080250366663648973 -0.079118190786817616 0.042227429804571115 0.094057274245070752 -0.042347205496818113 -0.06194385432260005 0.1482078477666755 0.10778296889525195 0.094278308043428946 0.13949307116993118 0.10970895717589302 0.06242082043382146 -0.017082707516324114 0.073274990838782333 0.062120443335981122 0.040794990908961853 -0.035554806758405444 -0.059420345451790153 -0.025719650204786483 -0.0043652531198553135 0.13193655982652386 0.10083165996562533 -0.098460949279765467 -0.011535481282764031 0.12027835516805389 -0.081942951434238215 0.10611978662835164 -0.02999934074747098 0.063087694385393703 0.059501722188795299 0.12974238866484572 0.021595775347978591 -0.00079998132678335662 -0.076488763691072659 0.056858732494249838 -0.016014512195865364 0.021108131871720698 0.16225983914151137
leaf_weight=1145.5 346.5 500.5 958.5 300 323.5 2970 538.5 23351 231 439 1138 1408.5 783 153.5 348 472 974 1287 328.5 173 150.5 367.5 280.5 6111 669.5 567.5 1348 289 203.5 226.5 1375.5 322.5 839.5 546 723 593.5 272.5 915 1129.5 387 499 639.5 167.5 367.5 1149 1339 1159.5 494 1005 197 418.5 151.5 540 424 643.5 730 180 274 1000.5 396 181.5 499.5
leaf_count=1123 250 214 821 106 184 1041 251 23349 144 294 404 510 267 106 120 165 551 447 216 118 101 129 133 2141 232 405 625 106 138 154 473 110 301 193 254 234 177 337 445 185 333 440 109 240 397 468 1038 314 350 150 143 101 222 165 223 394 117 201 404 262 106 173
internal_value=0.00057267 0.10311 -0.121385 0.138526 0.048459 0.15885 0.0687059 -0.134371 0.00744791 -0.0529536 0.101253 0.0823225 0.167701 0.04006 0.110926 0.127636 -0.0151031 0.0958015 -0.0318745 0.00176966 -0.101162 0.173187 0.034806 0.174826 0.070896 -0.0768547 0.0467524 0.100269 -0.0348562 -0.0443198 0.136927 0.0806381 0.10967 0.139141 0.128884 0.0809401 0.0104096 0.0595613 0.0513603 0.0223607 -0.0342061 -0.064596 -0.0538519 -0.00686491 0.123523 0.0926459 -0.107605 -0.0206798 0.114634 -0.0619111 0.0950275 -0.0539291 0.055092 0.0723821 0.142503 0.0283462 -0.0160028 -0.0656901 0.051286 -0.0270056 0.00406845 0.150755
internal_weight=67943 36910.5 31032.5 22394 14516.5 14486.5 9717 26080.5 4799.5 4952 7907.5 6582.5 11277 3134.5 5991 3209.5 2631 4128.5 2635 1419.5 2729.5 9448.5 2168.5 9081 1916.5 2317 2801 3771 1211.5 1757.5 2491 1416 2126.5 1828.5 2220 2002 1246.5 2454 2477.5 1348 1121.5 1358.5 514 877.5 1872 2477 2305 697.5 1294 636 718.5 791 820.5 1093.5 2019 1117 333.5 424.5 1539 895 549 1045.5
internal_count=43904 14570 29334 7874 6696 5054 3961 25812 2735 3522 2820 2484 3944 1477 2099 1110 1657 1492 1755 846 2463 3311 1078 3182 721 1767 1254 1328 811 1193 861 507 748 633 771 744 728 992 1070 723 749 946 359 562 651 872 2161 452 456 444 249 541 355 397 696 579 223 302 655 595 346 366
is_linear=0
shrinkage=0.01


Tree=12
num_leaves=63
num_cat=0
split_feature=23 31 23 23 31 22 2 1 29 29 22 18 23 31 22 22 23 28 31 23 31 29 22 27 22 31 29 23 23 18 28 26 2 23 1 9 18 31 29 23 18 18 26 22 31 22 29 23 26 18 26 23 28 31 29 18 23 22 26 23 26 26
split_gain=8.32818e+06 700067 270064 165818 118136 38630.6 37049 32289.7 28085.9 24379.9 22526.7 20215.2 19622.9 10870.6 9825.58 9159.71 8923.96 8191.64 8080.27 6927.86 5994.75 5901.74 5834.29 5074.15 4992.76 4895.73 4425.88 3739.28 3638.71 3372.67 3097.7 3024.52 2886.59 2880.87 2806.99 2691.08 2687.93 2609.42 2566.91 2213.25 2130.21 2051.25 1998.36 1992.3 1922.9 1903.91 1720.61 1719.17 1686.51 1787.85 1559.97 1473.39 1446.34 1259.34 1144.89 1125.25 1121.66 1027.57 936.985 915.86 905.546 902.004
threshold=741.3014715490624 637.93615278671916 489.16345227561357 881.22094891543577 428.18358980192897 801.52809409585245 127.86325531076797 0.021266047105824405 337.5204083008984 230.80407832937456 781.15179527406167 1.0000000180025095e-35 840.74707893691595 835.78041516545943 526.31166129363771 676.59029910537231 867.43066408493053 399.10239622152864 551.3838287787587 916.14102265748636 259.78255634478438 295.1589367199079 374.19571501731434 0.33073633767730265 638.94903900158045 843.50814040293119 28.552037204092759 849.90748925151513 805.05356929727589 1.0000000180025095e-35 366.94864270686406 63.724513376909648 134.0651431172208 854.0108015936986 0.78036456154664735 -0.86095304316285715 1.0000000180025095e-35 562.84712443426076 260.55382899653165 613.88260154267334 1.0000000180025095e-35 0.25000000000000006 272.33017744428315 504.71409680182177 544.37016005767612 991.5471429406598 812.11772383743744 684.39906311592938 225.46749283985858 0.25000000000000006 225.46749283985858 811.96598554311424 1.0000000180025095e-35 507.04804859163727 647.12202859687579 0.25000000000000006 842.90712161179829 624.48249928214614 272.33017744428315 634.28169417318907 343.60142169012801 192.49754283502685
decision_type=2 2 2 2 2 2 2 2 8 8 2 2 2 2 2 2 2 10 2 2 2 10 2 2 2 2 10 2 2 2 8 2 2 2 2 2 2 2 10 2 2 2 2 2 2 2 8 2 2 2 2 2 8 2 8 2 2 2 2 2 2 2
left_child=2 4 7 10 8 15 14 -1 20 26 24 19 37 27 38 57 23 31 29 45 48 52 -22 50 -3 60 -4 51 53 -14 -25 55 -17 58 -21 -15 -20 -8 -6 -33 -24 43 59 -18 -30 -7 -37 -19 49 -2 -10 -12 -9 -16 -29 -11 -40 -5 -26 -28 -13 -34
right_child=1 3 9 5 6 11 12 21 16 17 13 25 18 35 28 32 41 47 36 34 22 -23 40 30 33 -27 42 54 44 -31 -32 39 61 -35 -36 46 -38 -39 56 -41 -42 -43 -44 -45 -46 -47 -48 -49 -50 -51 -52 -53 -54 -55 -56 -57 -58 -59 -60 -61 -62 -63
leaf_value=-0.13683754465997075 -0.032624628551563305 0.042592182451522138 -0.094989228330667613 0.077941350055381289 -0.027136151779294862 0.14647796566249083 0.050774922489568941 -0.11544601663594493 -0.030056149721432696 -0.051846550600935841 0.07813325741681186 0.13707689990158098 0.091556228298205727 0.15501142709639545 0.014650006199858791 0.11127867659288915 0.042969250449310506 -0.024856194456605932 0.11888242028820288 0.16634356461910202 -0.056561824306845664 -0.066092983514766668 0.026349685562641494 0.0056823938713576596 0.079450848146918274 0.15764368550415839 -0.079026064358847237 0.093124768632762853 0.044534063947069463 0.064587822262811748 0.03378402218045691 -0.0617890409852596 0.14672845837404663 0.1067134289264679 0.18346256743616327 0.10861564838746596 0.094798690666695939 0.072544237985273152 0.0012416167453933164 -0.027045822748398087 -0.0080646425122209639 0.031741961160393677 -0.03246928527924401 0.080266814374846424 0.067642986317177883 0.16683941567001026 0.13062005868190482 0.00393933236335192 -0.021355608955319773 -0.072556177897028395 0.0092893134244385264 0.096785438601503668 -0.097726231615450701 0.040587464777716818 0.11907855650420224 -0.08163416754590333 0.031362809774448289 0.10506488985233806 0.058910193031027056 -0.060637471438919913 0.11726772464543939 0.12844998506431241
leaf_weight=23365.5 193.5 500.5 839.5 300 173.5 1099.5 1539 1138.5 283 445.5 685 649.5 1146 348 278.5 472 298.5 328.5 1204.5 1731 210.5 447 249.5 675.5 669.5 958.5 626 289 650 856 945 232.5 1375.5 322.5 4626 723 922 915 235.5 917.5 625 372 171 306 915 1464 1149 550.5 187.5 300.5 153 1792 1129.5 619.5 1005 203 262.5 418.5 424 638 748.5 643.5
leaf_count=23362 127 214 734 106 118 388 655 1116 184 298 241 227 405 120 157 165 134 216 416 606 144 320 139 404 232 330 448 106 290 339 473 158 473 110 1619 254 332 337 152 610 384 191 114 117 344 516 397 347 122 221 95 631 1014 280 350 155 136 143 165 442 258 223
internal_value=0.000567773 0.102081 -0.120172 0.137144 0.0479755 0.157264 0.0680206 -0.133027 0.00737303 -0.0524271 0.100244 0.166026 0.0815015 0.10982 0.0396601 0.126364 0.025831 -0.031914 0.0948459 0.173 -0.024296 -0.100132 -0.00962585 0.0139638 0.0701912 0.139461 -0.0765022 0.0992687 0.048898 0.0801327 0.0221122 -0.0441314 0.135561 0.0798365 0.178872 0.1276 0.108576 0.0589676 0.00568351 -0.0342105 0.00177259 0.0506981 -0.0655232 0.0621434 0.0581473 0.158267 0.122291 -0.00683375 -0.0474949 -0.0572084 -0.0162179 0.0917213 -0.10675 0.0326342 0.113492 -0.0614871 0.0172461 0.094084 0.0716616 -0.0699022 0.126717 0.141081
internal_weight=67943 36910.5 31032.5 22394 14516.5 14486.5 9717 26080.5 4799.5 4952 7907.5 11277 6582.5 5991 3134.5 3209.5 3033 2677.5 4128.5 8920.5 1766.5 2715 1085 2056.5 1916.5 2356.5 2274.5 3771 2463 2002 1620.5 1798.5 2491 1416 6357 2220 2126.5 2454 671.5 1150 874.5 976.5 1435 604.5 1565 2563.5 1872 879 681.5 494 436 2477 2268 898 1294 648.5 498 718.5 1093.5 1264 1398 2019
internal_count=43904 14570 29334 7874 6696 5054 3961 25812 2735 3522 2820 3944 2484 2099 1477 1110 1598 1784 1492 3129 1137 2450 667 1156 721 815 1738 1328 1071 744 877 1221 861 507 2225 771 748 992 406 768 523 442 1004 251 634 904 651 563 470 348 279 872 2130 437 456 453 288 249 397 890 485 696
is_linear=0
shrinkage=0.01


Tree=13
num_leaves=63
num_cat=0
split_feature=23 31 23 23 31 23 5 7 33 29 8 8 24 8 31 33 31 28 0 23 31 29 23 23 7 23 29 21 23 29 21 23 19 14 29 9 27 28 27 23 29 23 29 23 28 0 7 30 24 29 2 28 23 27 35 30 13 28 2 21 23 27
split_gain=8.1627e+06 686289 264673 145349 130775 42927.7 31794.8 31658.7 29837.5 23898.3 19793.7 18662.5 14396 10723.1 10590.2 9627.16 8616.23 7867.91 7501.65 7015.57 6362.94 5801.07 5569.41 5294.37 5076.63 4748.4 4499.81 4174.38 3359.92 3109.65 2863.94 2780 2637.66 2611.38 2565 2538.98 2513.93 1954.5 1948.54 1890.82 1774.32 1770.76 1707.5 1694 1671.23 1538.03 1415.05 1319.3 1019.45 906.823 899.516 783.358 728.221 710.491 681.539 632.967 624.561 588.336 542.298 515.856 418.168 395.133
threshold=741.3014715490624 655.67587371340971 489.16345227561357 881.22094891543577 431.59044774148521 911.04123332456868 25.121528606024793 0.37940952255126054 444.49217472834044 234.90786648521023 -0.70710678118654757 -0.5 737.08119466173673 -0.70710678118654757 835.78041516545943 665.79403440127783 285.11517092920315 399.10239622152864 67.159469183902957 895.0076712052936 573.2994410944458 341.62207999712285 867.43066408493053 824.6394117511287 0.60355339059327384 793.25796129408388 55.710163088421744 0.21000000000000005 823.85604772130489 230.80407832937456 1.0000000180025095e-35 613.88260154267334 0.55000000000000016 8.8500000000000032 544.12395374111645 -0.86095304316285715 0.35495733793824025 243.88403433589446 0.79708917120779754 634.28169417318907 584.89846950067874 821.50650512073287 812.11772383743744 684.39906311592938 1.0000000180025095e-35 65.776003116570394 -0.5 0.29596994203987737 279.34185510735819 307.89176376081707 106.14665221087945 533.26706935484003 793.85065406309764 0.23106346476165071 -167.70246176175854 1.0000000180025095e-35 31.750000000000004 841.46824608332531 254.95580410590725 0.21000000000000005 684.39906311592938 0.60886022762631897
decision_type=2 2 2 2 2 2 8 2 2 8 2 2 2 2 2 2 2 10 2 2 2 10 2 2 2 2 10 2 2 8 2 2 2 2 8 2 2 8 2 2 10 2 8 2 8 2 2 10 2 8 2 10 2 2 2 10 2 8 2 2 2 2
left_child=2 4 6 10 8 11 21 12 16 26 14 15 30 20 23 25 29 31 32 57 33 44 36 52 40 -6 55 -21 -17 53 46 -11 -18 -7 -25 -16 -10 59 -22 -28 -9 -12 -37 58 -1 -38 -5 -31 -24 -13 60 -45 -3 -2 -23 -4 -39 -14 -19 -33 -41 -50
right_child=1 3 9 7 5 13 -8 24 22 17 41 49 19 -15 35 28 18 43 -20 27 38 54 48 34 -26 -27 39 -29 -30 47 -32 37 -34 -35 -36 42 45 56 -40 50 -42 -43 -44 51 -46 -47 -48 -49 61 -51 -52 -53 -54 -55 -56 -57 -58 -59 -60 -61 -62 -63
leaf_value=-0.11425436937482319 -0.070566242426324324 0.066887093210062448 -0.11074460430769836 0.12529603484656188 0.035013182776787749 0.10713978778948999 -0.13548959833370927 0.10895557659748102 -0.0085408407541382944 -0.062637173078459368 0.044035492501764424 -0.033441897769673518 0.12949991782438267 0.061970848120990824 0.15180296386192585 0.065048595903527337 0.018147722839834849 -0.036899282677308458 -0.056868845565849056 0.17481911161439651 0.13436699969811128 -0.046670658897076341 0.038345861641867846 0.07626161337667188 0.081746843473458952 0.058109196610626128 -0.077548966309480494 0.14716956081745683 0.092315999714020366 -0.04163600672940606 0.11754013453560208 -0.039984759397965926 -0.016665315650564304 0.077615425184677386 0.1109095035660036 0.10755678979962018 0.033941606551472214 -0.031399056345863187 0.10924761646701424 -0.051320387661405412 0.13410743397086886 0.071790607905764997 0.12885672272235357 -0.0043610227136696511 -0.095889610593083055 0.0052422961397854797 0.15169729823412095 -0.01130198491073222 0.072756935496031669 -0.00065960187327704942 -0.06622777186472964 0.020861059799537306 0.086652988431328223 -0.043945852202308844 -0.076344354794039365 -0.086973355264421195 -0.011745737539507495 0.15204119039738392 -0.010742013923358171 -0.064004959134242381 -0.030642406105638502 0.053722790734095617
leaf_weight=1147 166 299.5 196 363 1191 598.5 23351 503.5 219 532 429 153.5 289.5 644.5 360 928.5 995.5 171 187 7398 753 193.5 280.5 269 321 3794.5 567.5 715.5 981 203.5 528 205.5 275.5 722.5 2230.5 780 937 569 751.5 286 1174.5 566.5 1171.5 367.5 1220.5 237 1410 494 261 187.5 319.5 181.5 1185 348 168.5 762.5 238 1288.5 157.5 213 185.5 318
leaf_count=1124 125 111 189 124 581 213 23349 177 139 364 183 106 100 236 124 349 563 113 128 2585 261 130 133 99 111 1555 405 252 348 138 183 137 179 271 779 273 458 380 264 192 402 200 405 240 1085 148 494 314 101 122 224 106 414 234 124 632 157 453 103 155 125 135
internal_value=0.000563084 0.101063 -0.118971 0.138012 0.0507292 0.0703398 -0.131698 0.156895 0.00805428 -0.0519058 0.101733 0.0564295 0.163075 0.0992784 0.108302 0.060001 -0.0145509 -0.0312435 0.0018157 0.168516 0.107717 -0.0991529 0.0348418 0.0982168 0.119646 0.0526171 -0.0753341 0.17243 0.0791726 -0.0342314 0.139993 -0.0434425 0.0105642 0.0911879 0.107271 0.125549 0.0223947 -0.0349791 0.122038 -0.0633137 0.126749 0.0599952 0.120505 -0.00672829 -0.104909 0.0281927 0.14649 -0.0203049 0.0548625 -0.0156252 -0.052857 0.00398886 0.0828012 -0.0528914 -0.0609803 -0.0921357 -0.025688 0.148133 -0.0246095 -0.052577 -0.0434424 0.0626219
internal_weight=67943 36910.5 31032.5 21282.5 15628 10706 26080.5 13991.5 4922 4952 7291 7236 11992.5 3470 6295.5 6895 2669.5 2635 1458 9691.5 2825.5 2729.5 2252.5 3984 1999 4985.5 2317 8113.5 1909.5 1211.5 2301 1757.5 1271 1321 2499.5 2311.5 1393 1225.5 1504.5 1358.5 1678 995.5 1951.5 877.5 2367.5 1174 1773 697.5 859.5 341 791 549 1484.5 514 362 958.5 807 1578 328.5 418.5 471.5 579
internal_count=43904 14570 29334 7469 7101 4306 25812 4881 2795 3522 2588 3061 4191 1245 2205 2833 1681 1755 870 3390 1009 2463 1114 1403 690 2136 1767 2837 697 811 801 1193 742 484 878 802 745 829 525 946 579 383 678 562 2209 606 618 452 369 228 541 346 525 359 254 821 537 553 216 292 317 236
is_linear=0
shrinkage=0.01


Tree=14
num_leaves=63
num_cat=0
split_feature=23 31 23 23 31 22 23 5 33 29 25 8 8 25 8 25 22 31 22 25 25 0 23 22 29 29 7 29 25 22 26 22 22 31 25 33 29 31 31 26 4 31 23 25 23 26 22 25 26 33 22 29 29 8 26 29 29 18 29 26 25 23
split_gain=8.00049e+06 672706 259382 159260 113462 37235.9 35529.9 31155.8 28007 23424.9 22236.7 22145 15020.4 14648.3 14495.8 13153.5 8823.24 8300.93 8001.86 7966.16 7951.58 7187.77 6664.64 6218.18 5683.25 4977.04 4949.77 4410.09 4059.92 3887.12 3780.88 3767.48 3562.23 3494.74 3316.68 3067.78 3048.32 2805.32 2789.21 2513.1 2354.36 2324.63 2323.11 2039.39 1852.56 1781.75 1681.9 1663.49 1542.84 1477.1 1271.29 1254.32 1224.59 1096.19 927.735 890.75 831.016 788.259 742.602 700.044 680.055 675.068
threshold=741.3014715490624 637.93615278671916 489.16345227561357 881.22094891543577 428.18358980192897 801.52809409585245 854.0108015936986 25.121528606024793 444.49217472834044 234.90786648521023 508.74386805627455 -0.70710678118654757 -0.70710678118654757 500.60081657140705 -0.5 301.79173253781812 676.59029910537231 285.11517092920315 862.88277536884073 338.80966430497398 205.56845973488262 67.159469183902957 923.16481488143961 402.86945610472662 341.62207999712285 654.4500502589774 0.37940952255126054 55.710163088421744 310.47848139030413 717.1825896873371 228.39141619659605 520.8966586798573 464.30441405142898 562.84712443426076 520.08411005313042 683.22118380486575 230.80407832937456 521.41361914582387 835.78041516545943 101.61429049637117 -0.28130471682489672 507.04804859163727 821.50650512073287 278.85176300424484 634.28169417318907 225.46749283985858 905.15193457985526 134.25619688001208 297.78821566660491 75.86568758022149 909.26111836660209 661.92009791849478 350.79600591612979 -0.70710678118654757 280.43323454996818 551.74298826086442 307.89176376081707 0.70000000000000007 636.61264734036843 340.31122894845026 175.94037645324801 867.43066408493053
decision_type=2 2 2 2 2 2 2 8 2 8 2 2 2 2 2 2 2 2 2 2 2 2 2 2 10 8 2 10 2 2 2 2 2 2 2 2 8 2 2 2 2 2 2 2 2 2 2 2 2 2 2 10 10 2 2 10 8 2 8 2 2 2
left_child=2 4 7 11 8 16 14 24 17 27 28 15 13 37 26 38 53 36 48 30 39 34 46 52 49 -20 33 -4 -7 -15 47 -14 -21 -6 -19 -24 45 -8 50 -11 58 -28 -13 -38 -29 -2 -12 -10 -17 -1 -3 -42 -22 -5 60 -25 -16 -30 -18 -32 -46 -34
right_child=1 3 9 5 6 10 12 -9 19 20 22 42 31 29 56 18 40 21 25 32 23 -23 35 55 -26 -27 41 44 57 -31 59 -33 61 -35 -36 -37 43 -39 -40 -41 51 -43 -44 -45 54 -47 -48 -49 -50 -51 -52 -53 -54 -55 -56 -57 -58 -59 -60 -61 -62 -63
leaf_value=-0.11220394286171334 -0.065337414893089529 0.0636221493231892 -0.091219760378305176 0.10465129914774889 0.05080625570815489 0.10013396818971922 0.05602307444142289 -0.13413484873348908 -0.02295482623089749 -0.062916180279547124 0.13964774029607105 0.041819932877075722 0.028959597826783173 0.10281683414089388 -0.033013030383127188 0.10218387358449733 0.12539876136858508 0.00095612202666860114 0.096573262607360461 0.031941535453042555 -0.047077955337521293 -0.056062728199251198 0.15425911448503796 0.0003139355693131287 -0.060379659468908539 0.1302755312227708 0.014470783171240184 -0.076776878200602111 0.14753691738358071 0.13280103772354485 0.021683315210385225 0.067751706389391375 0.054867230663715356 0.071904082201138683 0.038770716611746574 0.17695546388040703 -0.029433647409026219 0.084528180718838081 0.10874905706995684 -0.033504405524275208 0.099386612480163575 0.044322294537591428 0.07087485600745401 0.010929821663381863 -0.072404642920745041 -0.024827080197961014 0.1600486175979117 0.013177350882868297 0.078498379267287061 -0.094784164879689256 0.083694475642292598 0.12796073777182068 -0.021340313454630312 0.077246201679110532 -0.029001870817420158 0.02629875904735025 -0.0010240565398111317 0.12273240170296922 0.14586805147134652 0.044925877732393572 -0.049225172619743435 0.078039897278305043
leaf_weight=1217.5 346.5 580 958.5 381 2074.5 493.5 601.5 23351 263.5 664.5 732 535.5 380 1178.5 150.5 1390 421.5 927.5 588.5 489 380 184.5 871.5 483.5 362 2481 367 567.5 523.5 793.5 309 783 267 1329 307.5 5788.5 537 928.5 345 544.5 310 954 619 160.5 225.5 167.5 2503.5 241.5 422 1150 946.5 582 382.5 337.5 151.5 180 177 364.5 1177.5 243 414 355.5
leaf_count=1195 250 212 821 130 876 170 248 23349 174 463 256 233 196 410 104 478 147 564 210 246 255 126 303 313 254 858 206 405 182 276 174 280 108 489 156 2030 355 339 119 365 110 422 219 97 163 109 877 140 152 1014 339 201 254 119 101 105 115 126 403 110 277 126
internal_value=0.000558105 0.100055 -0.117782 0.134425 0.0470165 0.154143 0.0666611 -0.130381 0.00722519 -0.0513907 0.162746 0.0982619 0.0865755 0.0969454 0.0482335 0.105196 0.123807 -0.0146941 0.113903 0.0338172 -0.0309339 0.00170491 0.168044 -0.0148731 -0.0981647 0.123906 0.0526933 -0.0745858 0.12454 0.115048 0.0140802 0.0551875 0.0524904 0.0590986 0.010451 0.174048 -0.0338931 0.0734477 0.0823513 -0.049787 0.132833 0.0360908 0.0575392 -0.0201041 -0.0626853 -0.0523686 0.155552 -0.00564672 0.0967972 -0.103862 0.0762008 0.118364 -0.0343116 0.0921255 -0.0523338 0.00747312 -0.0159388 0.137757 0.140692 0.0321166 -0.0576878 0.0684
internal_weight=67943 36910.5 31032.5 22394 14516.5 14486.5 9717 26080.5 4799.5 4952 11277 7907.5 4665 3502 5052 6753 3209.5 2631 4881.5 2168.5 2635 1419.5 9895.5 1426 2729.5 3069.5 4724.5 2317 1381.5 1972 1057 1163 1111.5 3403.5 1235 6660 1211.5 1530 1871.5 1209 2491 1321 1154.5 697.5 1358.5 514 3235.5 505 1812 2367.5 1526.5 892 762.5 718.5 791 663.5 327.5 888 1599 552 639.5 622.5
internal_count=43904 14570 29334 7874 6696 5054 3961 25812 2735 3522 3944 2820 1749 1273 2212 2368 1110 1657 1698 1078 1755 846 3466 927 2463 1068 1993 1767 478 686 598 476 480 1365 720 2333 811 587 670 828 861 628 452 452 946 359 1133 314 630 2209 551 311 509 249 541 418 219 308 550 284 440 234
is_linear=0
shrinkage=0.01


Tree=15
num_leaves=63
num_cat=0
split_feature=8 31 0 31 31 10 22 29 25 10 25 8 22 28 31 22 25 7 26 18 22 22 7 22 22 8 22 22 29 25 10 28 29 25 22 26 2 25 18 29 35 26 25 26 26 2 25 28 29 25 2 10 11 22 35 25 25 25 29 29 8 2
split_gain=7.79162e+06 715974 210328 120079 112834 50106.8 36909.5 35711.9 35597.6 31109.2 24361 23885.3 15141.6 13539.2 13499.3 12798.7 13035.2 11811.4 9460.09 7750.81 6659.42 6408.12 6104.13 5392.86 5295.56 4828.18 4275.39 3932.65 3897.13 3639.4 3577.99 3462.51 3136.66 3112.99 3054.4 2960.44 2644.31 2422.81 2412.55 2399.99 2071.29 2025.49 1855.72 1746.31 1639.96 1616.72 1493.11 1259.75 1170.53 1100.26 978.152 949.08 862.571 853.728 841.211 836.898 817.602 772.925 756.197 737.503 713.585 652.418
threshold=-0.5 605.16158411864774 88.599358807513269 807.72683900875336 345.01216066757189 0.20088311396693917 698.65174691014192 90.581817448818398 500.60081657140705 0.16704543776228123 329.40271705539982 -0.70710678118654757 994.11451344020793 276.63932676476674 507.04804859163727 782.47959472848163 243.74842747882158 0.37940952255126054 89.057604045343183 1.0000000180025095e-35 797.87753394116953 858.45279955428907 0.60355339059327384 374.19571501731434 585.50313290378278 -0.70710678118654757 113.3881900218976 520.8966586798573 395.93247481760358 415.84064391626896 -0.081676395330422577 11.194672501938465 584.89846950067874 78.008907092387389 656.03717862991562 315.57807452263393 229.09100463587222 723.77856845435917 0.25000000000000006 383.10428705752946 23.588997075424249 272.33017744428315 479.23641885742262 361.15992373340038 219.80188649586054 126.30486139228613 536.69361032683832 366.94864270686406 320.53474050217818 114.70809207614046 144.09430787020653 0.34963450400049073 -0.63874350706337102 318.8797102088194 -67.476335455043241 121.30407995607361 265.25191815695467 198.34129540982383 492.0911820197976 740.69782493543369 -0.37940952255126009 84.827967075318426
decision_type=2 2 2 2 2 2 2 8 2 2 2 2 2 8 2 2 2 2 2 2 2 2 2 2 2 2 2 2 10 2 2 8 8 2 2 2 2 2 2 10 2 2 2 2 2 2 2 8 8 2 2 2 2 2 2 2 2 2 8 10 2 2
left_child=1 4 7 5 10 15 24 31 14 12 18 36 21 26 22 34 49 37 48 20 -8 59 33 39 -7 30 -9 -13 35 -23 -16 -2 -18 -6 -3 -20 40 -11 61 53 -10 -36 -21 52 -30 -26 47 -12 -1 -17 -39 -29 -14 -15 57 -41 -24 -28 -27 -5 -33 -25
right_child=2 3 -4 9 8 6 19 13 11 17 46 27 43 23 25 16 32 -19 28 42 -22 29 56 38 45 58 54 51 44 -31 -32 60 -34 -35 41 -37 -38 50 -40 55 -42 -43 -44 -45 -46 -47 -48 -49 -50 -51 -52 -53 -54 -55 -56 -57 -58 -59 -60 -61 -62 -63
leaf_value=-0.086022861421108238 -0.11090019911365664 0.036992372100994195 -0.13271109103118697 0.082083971461002853 0.015180939432622782 0.056320461246454831 0.13399465628032584 -0.08785792825063822 0.12871217538395199 0.16054930088005098 0.0073926122303600364 0.032422266841044323 0.15068267276217026 -0.070496163033152537 0.054353783387343847 0.060084190454131749 0.084479795220407466 0.12902836944998763 -0.042477622202350594 0.10368131309892227 0.16343819431812276 0.10782818655068961 -0.01851130550581476 -0.01756653458755239 0.076452691459959962 0.0095476875862413307 -0.058275880232478219 0.051250027443101892 -0.015157710206478192 0.13623252937755451 0.083767155208978164 -0.07812525439767011 0.11302830201145525 0.037686782293324721 0.0820430322264879 -0.0040866268102329783 0.090968245276359036 0.16052792225620857 -0.036442592950738761 -0.047033855801139959 0.094902290189446584 0.055231103107374925 0.13167214061859953 0.13531912819958003 0.014768888354956057 0.1049489664174916 0.048613982326378029 0.041593004930659795 -0.053937753802083259 0.07897369303728706 0.1812414241685264 0.070753893249796668 0.17005959547658567 -0.047553323318788213 -0.065002648865119889 -0.021370947396653329 0.0098800478469675945 -0.032021513838338629 0.038102232323990341 0.10632987900374552 -0.094118520214219306 0.0064079964192591968
leaf_weight=232.5 1285.5 362.5 23430.5 345.5 868.5 425.5 1504.5 841.5 525 1312.5 282 677.5 733.5 363.5 1635 580.5 512.5 694.5 780 513 1906.5 666 285 163.5 311 201 297 475 438 2169.5 577.5 625 2511 2179.5 700.5 273 1141.5 495 308 212 361 533 661 418.5 310.5 930 343.5 175.5 281 901 3451.5 697 1009.5 369 860.5 348.5 153.5 208.5 178.5 334.5 906.5 355.5
leaf_count=189 1251 160 23424 125 483 165 521 697 181 457 172 352 264 251 670 220 185 239 522 179 668 231 188 109 109 120 201 190 282 761 212 485 866 1046 241 176 395 174 206 143 129 210 232 147 183 320 152 83 192 321 1197 240 355 248 603 233 92 139 83 113 823 231
internal_value=-6.52606e-05 0.0974324 -0.118224 0.129883 0.0378787 0.108114 0.128051 -0.0706795 0.0543131 0.152972 -0.0146219 0.0779989 0.136016 -0.0525761 0.0391758 0.0876366 0.0962974 0.169073 -0.0310682 0.14274 0.150566 0.122926 0.0262824 -0.0344382 0.0874703 0.056467 -0.0699251 0.051869 -0.0202017 0.129671 0.0621283 -0.0984099 0.108271 0.0312998 0.0630621 -0.0325813 0.101729 0.174293 -0.0143911 -0.0471884 0.11527 0.0706129 0.119709 0.157127 -0.00270214 0.0979958 0.0328279 0.0207212 -0.0688599 0.0717027 0.178753 0.0629964 0.162147 -0.0591737 -0.0587194 -0.0312877 -0.00851636 -0.047707 0.0232054 0.0943932 -0.087746 -0.00114474
internal_weight=67629.5 37054.5 30575 23983 13071.5 12352.5 6251.5 7144.5 9955.5 11630.5 3116 3877 5677 4327.5 6078.5 6101 4505 5953.5 2315 4585 3411 3515.5 3486.5 2120 1666.5 2592 2207.5 1849.5 1801.5 2835.5 2212.5 2817 3023.5 3048 1596 1053 2027.5 5259 827 1293 886 1233.5 1174 2161.5 748.5 1241 801 457.5 513.5 1481.5 3946.5 1172 1743 732.5 1366 560.5 438.5 505.5 379.5 680 1531.5 519
internal_count=43836 14792 29044 8460 6332 4397 2194 5620 4381 4063 1951 1487 1996 3061 2894 2203 1592 2067 1544 1600 1189 1230 1809 1421 594 1085 1640 782 1163 992 882 2559 1051 1529 611 698 705 1828 546 875 310 451 411 766 465 429 407 255 381 541 1371 430 619 499 943 376 280 340 203 238 1308 340
is_linear=0
shrinkage=0.01


Tree=16
num_leaves=63
num_cat=0
split_feature=23 31 23 23 31 22 23 1 33 29 29 25 8 31 8 25 25 22 28 29 31 23 22 25 29 25 22 8 0 29 29 25 22 25 33 25 22 26 25 25 24 23 8 31 23 4 26 23 26 29 23 22 26 25 33 29 25 12 26 8 4 26
split_gain=7.63823e+06 650140 258229 148212 106350 38269.7 33850.2 28997.8 27315.3 23820.4 20415.5 18520.7 15603.8 10003.5 9494.61 11782.1 9082.12 8698.33 8693.34 8542.6 8254.74 7285.53 5442.8 5219.09 4896.08 4743.54 4423.09 4279.21 4247.07 3991.81 3854.31 3682.01 3465.76 3319.24 3220.76 2761.97 2698.68 2555.27 2390.05 2358.06 2261.07 2120.75 2104.59 2052.85 1973.09 1942.55 1895.13 1653.36 1556.21 1495.65 1624.46 1113.81 1060.6 999.516 952.119 934.823 892.873 863.984 817.249 793.99 779.479 696.083
